{"learner":{"attributes":{"best_iteration":"0","best_score":"0.500406904275898"},"feature_names":["Change in Sent Messages","Change in Received Messages","Change in Recipients in Sent Messages","Change in Bcc Recipients in Sent Messages","Change in Cc Recipients in Sent Messages","Change in Replies to Messages","Change in Characters in Outgoing Messages","Change in Messages Outside Working Hours","Change in Unanswered Questions","Ratio of Sent Messages","Ratio of Received Messages","Ratio of Characters in Outgoing Messages","Average Response Time","Change in Average Response Time","Percent Change in Unanswered Questions","Average Recipients in Sent Messages","Change in Bytes Ratio","Change in Received/Sent Ratio"],"feature_types":["int","int","int","int","int","int","int","int","int","float","float","float","float","int","float","float","float","float"],"gradient_booster":{"model":{"gbtree_model_param":{"num_parallel_tree":"1","num_trees":"101"},"iteration_indptr":[0,1,2,3,4,5,6,7,8,9,10,11,12,13,14,15,16,17,18,19,20,21,22,23,24,25,26,27,28,29,30,31,32,33,34,35,36,37,38,39,40,41,42,43,44,45,46,47,48,49,50,51,52,53,54,55,56,57,58,59,60,61,62,63,64,65,66,67,68,69,70,71,72,73,74,75,76,77,78,79,80,81,82,83,84,85,86,87,88,89,90,91,92,93,94,95,96,97,98,99,100,101],"tree_info":[0,0,0,0,0,0,0,0,0,0,0,0,0,0,0,0,0,0,0,0,0,0,0,0,0,0,0,0,0,0,0,0,0,0,0,0,0,0,0,0,0,0,0,0,0,0,0,0,0,0,0,0,0,0,0,0,0,0,0,0,0,0,0,0,0,0,0,0,0,0,0,0,0,0,0,0,0,0,0,0,0,0,0,0,0,0,0,0,0,0,0,0,0,0,0,0,0,0,0,0,0],"trees":[{"base_weights":[-1.094595E-3,2.4171352E-2,-6.74255E-2,1.8862535E-3,9.224955E-2,3.0170806E-2,-1.1880992E-1,3.979593E-1,-2.5091118E-3,1.07713476E-1,-2.33542E-1,1.3811359E-1,-6.006816E-2,-3.1758267E-2,-1.960057E-1,-1.27138905E-2,1.48679875E-2,-5.1523127E-2,2.7690291E-2,1.1821439E-1,-3.500885E-1,1.4184491E-2,-4.1290897E-1,2.2155085E-1,-1.3358691E-1,9.057292E-2,-1.529596E-1,2.6666656E-1,-8.0017634E-2,-3.4845637E-3,-3.0294377E-1,7.7254153E-3,-1.0242851E-1,4.0832464E-2,-1.2297764E-1,1.0826638E-1,1.4791629E-2,1.25370445E-2,-1.487288E-2,1.25370445E-2,-1.5105971E-2,4.2835376E-1,1.479918E-1,-3.3101097E-1,2.0460236E-1,2.543502E-1,-2.4911295E-1,-2.5228834E-1,1.19908035E-1,-1.4624627E-2,4.358381E-1,3.483912E-1,-1.2929311E-1,-1.24407604E-1,1.6189623E-1,-1.8443087E-1,-3.7562323E-1,-1.0920875E-1,7.671084E-2,1.4184491E-2,-1.1122721E-1,-1.2994331E-2,8.6184695E-2,1.0635439E-1,-2.5183696E-1,1.172218E-1,-3.2538578E-1,1.4971031E-2,-1.27138905E-2,2.6886138E-1,-1.0205222E-1,-4.0482795E-1,1.25370445E-2,-1.5893987E-1,1.44212805E-2,-1.4384506E-2,3.5671484E-1,-3.9516398E-1,1.3733442E-2,1.3733442E-2,-2.877673E-1,-3.2538578E-1,3.883082E-1,1.4984011E-2,-3.0519995E-3,1.48959495E-2,-1.5893987E-1,-3.9386386E-1,-8.025832E-2,1.44212805E-2,-1.9919254E-1,3.979593E-1,-3.4389012E-3,6.690539E-2,-3.013788E-1,-3.880448E-1,1.25370445E-2,7.4608184E-2,-1.8352444E-1,-2.0662062E-2,1.8097568E-1,-9.2869535E-2,-3.5528758E-1,-1.6234262E-1,1.9627877E-2,1.5641408E-1,1.8486544E-2,-1.6625349E-1,3.7656137E-1,-3.2494806E-2,-1.5182109E-2,1.0676654E-1,1.4791629E-2,1.25370445E-2,-1.4772576E-2,-9.927357E-2,3.3989477E-1,2.0460236E-1,-3.6877373E-1,1.25370445E-2,-1.5077617E-2,1.25370445E-2,-1.3927113E-2,-1.3927113E-2,4.4184119E-1,1.25370445E-2,-1.5043104E-2,-3.2226846E-1,1.5239847E-1,1.25370445E-2,-1.4772576E-2,1.4833954E-2,-1.27138905E-2,-1.27138905E-2,1.25370445E-2,-1.3927113E-2,1.25370445E-2,-1.5182109E-2,-3.2648034E-3,2.9724924E-2,-2.2966918E-1,-3.2494806E-2,-3.7357378E-1,1.48679875E-2,-1.27138905E-2,3.1862286E-1,-1.992835E-1,-2.4697562E-1,1.466609E-2,-4.4591925E-1,-4.8013467E-2,1.25370445E-2,-4.0082535E-1,7.995293E-3,-9.9493E-3,-6.5314528E-3,1.3733442E-2,9.440803E-3,-3.0209152E-3,-8.904029E-3,7.038832E-3,8.698631E-3,-3.1610772E-3,-1.5129683E-2,1.3733442E-2,1.4184491E-2,-6.330956E-3,-6.9891573E-3,1.4674811E-3,-2.4929843E-3,5.816633E-3,-6.861593E-3,2.7470402E-3,-9.9493E-3,4.659878E-3,-1.27138905E-2,1.4791629E-2,-4.408375E-3,1.4184491E-2,-1.4384506E-2,3.459504E-3,4.659878E-3,-1.3927113E-2,1.1415873E-2,-1.27138905E-2,-1.3927113E-2,1.4567178E-2,-1.4945359E-2,1.25370445E-2,-1.27138905E-2,1.5014844E-2,1.25370445E-2,-1.0509184E-2,1.3733442E-2,-1.27138905E-2,1.3733442E-2,-1.3927113E-2,-4.1073635E-3,9.530546E-3,-9.074164E-3,8.698631E-3,-5.891295E-3,1.44212805E-2,-1.3171831E-2,1.25370445E-2,-1.27138905E-2,1.4567178E-2,-1.1275971E-2,1.3733442E-2,-1.487288E-2,1.3733442E-2,-9.33208E-5,-1.5206905E-2,1.4184491E-2,-7.5517576E-3,-1.2658259E-2,1.25370445E-2],"categories":[],"categories_nodes":[],"categories_segments":[],"categories_sizes":[],"default_left":[0,0,0,0,0,0,0,0,0,0,0,0,0,0,0,0,0,0,0,0,0,0,0,0,0,0,0,0,0,0,0,0,0,0,0,0,0,0,0,0,0,0,0,0,0,0,0,0,0,0,0,0,0,0,0,0,0,0,0,0,0,0,0,0,0,0,0,0,0,0,0,0,0,0,0,0,0,0,0,0,0,0,0,0,0,0,0,0,0,0,0,0,0,0,0,0,0,0,0,0,0,0,0,0,0,0,0,0,0,0,0,0,0,0,0,0,0,0,0,0,0,0,0,0,0,0,0,0,0,0,0,0,0,0,0,0,0,0,0,0,0,0,0,0,0,0,0,0,0,0,0,0,0,0,0,0,0,0,0,0,0,0,0,0,0,0,0,0,0,0,0,0,0,0,0,0,0,0,0,0,0,0,0,0,0,0,0,0,0,0,0,0,0,0,0,0,0,0,0,0,0,0,0,0,0,0,0,0,0,0,0,0,0,0,0,0,0],"id":0,"left_children":[1,3,5,7,9,11,13,15,17,19,21,23,25,27,29,-1,-1,31,33,35,37,-1,39,41,43,45,47,49,51,53,55,57,59,61,63,65,-1,-1,-1,-1,-1,67,69,71,73,75,77,79,81,-1,83,85,87,89,91,93,95,97,99,-1,101,103,105,107,109,111,113,-1,-1,115,117,119,-1,121,-1,-1,123,125,-1,-1,127,129,131,-1,133,-1,135,137,139,-1,141,143,145,147,149,151,-1,153,155,157,159,161,163,165,167,169,171,173,175,177,-1,179,-1,-1,-1,181,183,185,187,-1,-1,-1,-1,-1,189,-1,-1,191,193,-1,-1,-1,-1,-1,-1,-1,-1,-1,195,197,199,201,203,-1,-1,205,207,209,-1,211,213,-1,215,-1,-1,-1,-1,-1,-1,-1,-1,-1,-1,-1,-1,-1,-1,-1,-1,-1,-1,-1,-1,-1,-1,-1,-1,-1,-1,-1,-1,-1,-1,-1,-1,-1,-1,-1,-1,-1,-1,-1,-1,-1,-1,-1,-1,-1,-1,-1,-1,-1,-1,-1,-1,-1,-1,-1,-1,-1,-1,-1,-1,-1,-1,-1,-1],"loss_changes":[3.13634E0,2.0559692E0,2.5895355E0,1.7781209E0,1.6890147E0,1.7376481E0,2.271412E0,8.4795535E-1,1.4956135E0,1.5431972E0,1.9430373E0,1.8472799E0,1.3632194E0,2.2973537E0,3.6892543E0,0E0,0E0,1.1620113E0,1.2390165E0,1.1241446E0,7.8907573E-1,0E0,8.577552E-1,9.328785E-1,1.2968843E0,2.0834413E0,1.6383117E0,2.8428917E0,2.9059343E0,1.2883265E0,9.776468E-1,1.4393322E0,1.0432727E0,1.4044379E0,1.4894631E0,1.1893809E0,0E0,0E0,0E0,0E0,0E0,8.8117886E-1,1.4024137E0,7.0281553E-1,7.1581507E-1,1.90568E0,1.2825334E0,1.1273618E0,1.9639946E0,0E0,4.3366027E-1,1.0168185E0,1.5916598E0,1.6783496E0,1.0623932E0,1.303785E0,7.283888E-1,9.0737206E-1,1.1400499E0,0E0,9.07887E-1,1.2830857E0,1.4837196E0,1.3546009E0,1.7251883E0,1.1317782E0,7.62099E-1,0E0,0E0,8.23303E-1,1.2599819E0,8.4891486E-1,0E0,5.809208E-1,0E0,0E0,1.5779188E0,8.3834493E-1,0E0,0E0,6.5138745E-1,7.62099E-1,8.3741057E-1,0E0,4.1269797E-1,0E0,5.809208E-1,7.698271E-1,1.7139423E0,0E0,9.627327E-1,8.4795535E-1,1.0357733E0,1.8659358E0,1.1017196E0,7.506819E-1,0E0,1.4538102E0,9.1864157E-1,1.5046425E0,1.2740871E0,7.606206E-1,1.6416271E0,1.3419034E0,1.5244582E0,1.2360518E0,2.7635055E0,4.7750735E-1,8.245791E-1,9.6805555E-1,0E0,1.0788839E0,0E0,0E0,0E0,4.8176178E-1,6.9526744E-1,1.3392797E0,8.094926E-1,0E0,0E0,0E0,0E0,0E0,8.959274E-1,0E0,0E0,6.448827E-1,5.805749E-1,0E0,0E0,0E0,0E0,0E0,0E0,0E0,0E0,0E0,9.0439105E-1,2.7940311E0,1.5429018E0,1.4087785E0,7.6375604E-1,0E0,0E0,7.6134425E-1,1.1569475E0,1.4143982E0,0E0,4.3695807E-1,1.1658146E0,0E0,7.739544E-1,0E0,0E0,0E0,0E0,0E0,0E0,0E0,0E0,0E0,0E0,0E0,0E0,0E0,0E0,0E0,0E0,0E0,0E0,0E0,0E0,0E0,0E0,0E0,0E0,0E0,0E0,0E0,0E0,0E0,0E0,0E0,0E0,0E0,0E0,0E0,0E0,0E0,0E0,0E0,0E0,0E0,0E0,0E0,0E0,0E0,0E0,0E0,0E0,0E0,0E0,0E0,0E0,0E0,0E0,0E0,0E0,0E0,0E0,0E0,0E0,0E0,0E0,0E0,0E0],"parents":[2147483647,0,0,1,1,2,2,3,3,4,4,5,5,6,6,7,7,8,8,9,9,10,10,11,11,12,12,13,13,14,14,17,17,18,18,19,19,20,20,22,22,23,23,24,24,25,25,26,26,27,27,28,28,29,29,30,30,31,31,32,32,33,33,34,34,35,35,41,41,42,42,43,43,44,44,45,45,46,46,47,47,48,48,50,50,51,51,52,52,53,53,54,54,55,55,56,56,57,57,58,58,60,60,61,61,62,62,63,63,64,64,65,65,66,66,69,69,70,70,71,71,73,73,76,76,77,77,80,80,81,81,82,82,84,84,86,86,87,87,88,88,90,90,91,91,92,92,93,93,94,94,95,95,97,97,98,98,99,99,100,100,101,101,102,102,103,103,104,104,105,105,106,106,107,107,108,108,109,109,111,111,115,115,116,116,117,117,118,118,124,124,127,127,128,128,138,138,139,139,140,140,141,141,142,142,145,145,146,146,147,147,149,149,150,150,152,152],"right_children":[2,4,6,8,10,12,14,16,18,20,22,24,26,28,30,-1,-1,32,34,36,38,-1,40,42,44,46,48,50,52,54,56,58,60,62,64,66,-1,-1,-1,-1,-1,68,70,72,74,76,78,80,82,-1,84,86,88,90,92,94,96,98,100,-1,102,104,106,108,110,112,114,-1,-1,116,118,120,-1,122,-1,-1,124,126,-1,-1,128,130,132,-1,134,-1,136,138,140,-1,142,144,146,148,150,152,-1,154,156,158,160,162,164,166,168,170,172,174,176,178,-1,180,-1,-1,-1,182,184,186,188,-1,-1,-1,-1,-1,190,-1,-1,192,194,-1,-1,-1,-1,-1,-1,-1,-1,-1,196,198,200,202,204,-1,-1,206,208,210,-1,212,214,-1,216,-1,-1,-1,-1,-1,-1,-1,-1,-1,-1,-1,-1,-1,-1,-1,-1,-1,-1,-1,-1,-1,-1,-1,-1,-1,-1,-1,-1,-1,-1,-1,-1,-1,-1,-1,-1,-1,-1,-1,-1,-1,-1,-1,-1,-1,-1,-1,-1,-1,-1,-1,-1,-1,-1,-1,-1,-1,-1,-1,-1,-1,-1,-1,-1],"split_conditions":[2.5E1,1E1,-2E0,-1.59E2,1.12E2,3.5E0,0E0,-7E0,-1.6669807E-1,1.2563124E0,-6.906726E-1,1.1787072E0,7E0,-1.5E1,-2.781798E-1,-1.27138905E-2,1.48679875E-2,0E0,1.0967742E0,1.1193181E0,-1E0,1.4184491E-2,-7E0,-1E0,4E0,3E0,1.3692307E0,8.29582E-1,-8.5E1,1.0952381E0,-2.7747065E-1,-2.4019672E-1,6.309227E-1,0E0,3.5E0,2.2E1,1.4791629E-2,1.25370445E-2,-1.487288E-2,1.25370445E-2,-1.5105971E-2,1.15E1,3E0,3E0,8.5E0,-8E1,6E0,1.1279069E0,-1.6010164E-1,-1.4624627E-2,2E0,7.4E1,-1E0,-1.0662017E0,3E0,-5E0,2.6E1,-8.2445204E-1,1.1E1,1.4184491E-2,5.5E0,-4.7E1,3E0,1.113744E0,1E0,1.3469387E0,4E0,1.4971031E-2,-1.27138905E-2,-1.3E1,3.2093212E-2,5E0,1.25370445E-2,-2E0,1.44212805E-2,-1.4384506E-2,-2E0,-9E0,1.3733442E-2,1.3733442E-2,1.43083E0,0E0,8.3E1,1.4984011E-2,3E0,1.48959495E-2,8.5E1,1.1409836E0,4E0,1.44212805E-2,6E0,-2.8478262E-1,3.5E1,-7.092353E-1,4.9E1,1.5E0,1.25370445E-2,6E0,1.5043478E0,-1.8382726E-2,-7E0,-1.11E2,2E0,2E0,-1.7E1,-8E1,-4.572507E-1,6.5E1,-2E0,0E0,-1.5182109E-2,1.5E0,1.4791629E-2,1.25370445E-2,-1.4772576E-2,-5E0,8E1,1.1764706E0,8.5E1,1.25370445E-2,-1.5077617E-2,1.25370445E-2,-1.3927113E-2,-1.3927113E-2,-8E0,1.25370445E-2,-1.5043104E-2,-2E1,3.3E1,1.25370445E-2,-1.4772576E-2,1.4833954E-2,-1.27138905E-2,-1.27138905E-2,1.25370445E-2,-1.3927113E-2,1.25370445E-2,-1.5182109E-2,5.9E1,8E0,1.15E1,4.57355E-1,1.8E1,1.48679875E-2,-1.27138905E-2,5E0,8.5E1,3E0,1.466609E-2,2.6E1,-1.1100411E0,1.25370445E-2,1.2263528E0,7.995293E-3,-9.9493E-3,-6.5314528E-3,1.3733442E-2,9.440803E-3,-3.0209152E-3,-8.904029E-3,7.038832E-3,8.698631E-3,-3.1610772E-3,-1.5129683E-2,1.3733442E-2,1.4184491E-2,-6.330956E-3,-6.9891573E-3,1.4674811E-3,-2.4929843E-3,5.816633E-3,-6.861593E-3,2.7470402E-3,-9.9493E-3,4.659878E-3,-1.27138905E-2,1.4791629E-2,-4.408375E-3,1.4184491E-2,-1.4384506E-2,3.459504E-3,4.659878E-3,-1.3927113E-2,1.1415873E-2,-1.27138905E-2,-1.3927113E-2,1.4567178E-2,-1.4945359E-2,1.25370445E-2,-1.27138905E-2,1.5014844E-2,1.25370445E-2,-1.0509184E-2,1.3733442E-2,-1.27138905E-2,1.3733442E-2,-1.3927113E-2,-4.1073635E-3,9.530546E-3,-9.074164E-3,8.698631E-3,-5.891295E-3,1.44212805E-2,-1.3171831E-2,1.25370445E-2,-1.27138905E-2,1.4567178E-2,-1.1275971E-2,1.3733442E-2,-1.487288E-2,1.3733442E-2,-9.33208E-5,-1.5206905E-2,1.4184491E-2,-7.5517576E-3,-1.2658259E-2,1.25370445E-2],"split_indices":[1,15,2,6,6,12,7,2,17,17,16,11,15,5,16,0,0,7,10,10,8,0,2,8,5,7,10,11,6,11,17,16,11,7,12,1,0,0,0,0,0,15,7,7,15,6,7,10,17,0,8,1,3,17,2,5,5,17,6,0,12,1,7,10,8,11,5,0,0,5,17,15,0,3,0,0,8,2,0,0,11,3,6,0,2,0,1,11,12,0,15,16,1,17,1,15,0,5,11,16,2,6,3,12,5,6,16,6,3,8,0,12,0,0,0,2,1,10,1,0,0,0,0,0,7,0,0,5,1,0,0,0,0,0,0,0,0,0,1,15,15,17,5,0,0,2,6,3,0,1,17,0,17,0,0,0,0,0,0,0,0,0,0,0,0,0,0,0,0,0,0,0,0,0,0,0,0,0,0,0,0,0,0,0,0,0,0,0,0,0,0,0,0,0,0,0,0,0,0,0,0,0,0,0,0,0,0,0,0,0,0,0,0,0,0,0,0],"split_type":[0,0,0,0,0,0,0,0,0,0,0,0,0,0,0,0,0,0,0,0,0,0,0,0,0,0,0,0,0,0,0,0,0,0,0,0,0,0,0,0,0,0,0,0,0,0,0,0,0,0,0,0,0,0,0,0,0,0,0,0,0,0,0,0,0,0,0,0,0,0,0,0,0,0,0,0,0,0,0,0,0,0,0,0,0,0,0,0,0,0,0,0,0,0,0,0,0,0,0,0,0,0,0,0,0,0,0,0,0,0,0,0,0,0,0,0,0,0,0,0,0,0,0,0,0,0,0,0,0,0,0,0,0,0,0,0,0,0,0,0,0,0,0,0,0,0,0,0,0,0,0,0,0,0,0,0,0,0,0,0,0,0,0,0,0,0,0,0,0,0,0,0,0,0,0,0,0,0,0,0,0,0,0,0,0,0,0,0,0,0,0,0,0,0,0,0,0,0,0,0,0,0,0,0,0,0,0,0,0,0,0,0,0,0,0,0,0],"sum_hessian":[1.871E3,1.355E3,5.16E2,1.021E3,3.34E2,1.78E2,3.38E2,1.1E1,1.01E3,3.19E2,1.5E1,8.1E1,9.7E1,1.59E2,1.79E2,1E0,1E1,3.85E2,6.25E2,3.12E2,7E0,3E0,1.2E1,6.2E1,1.9E1,3.7E1,6E1,2.2E1,1.37E2,6.4E1,1.15E2,1.78E2,2.07E2,5.75E2,5E1,3.04E2,8E0,1E0,6E0,1E0,1.1E1,1.6E1,4.6E1,1.2E1,7E0,2.5E1,1.2E1,4.4E1,1.6E1,4E0,1.8E1,1.4E1,1.23E2,3.7E1,2.7E1,4.4E1,7.1E1,6.6E1,1.12E2,3E0,2.04E2,2.63E2,3.12E2,1.8E1,3.2E1,2.98E2,6E0,1.5E1,1E0,3.1E1,1.5E1,1.1E1,1E0,3E0,4E0,3E0,2.2E1,1E1,2E0,2E0,4.2E1,6E0,1E1,1.6E1,2E0,1.1E1,3E0,1.9E1,1.04E2,4E0,3.3E1,1.1E1,1.6E1,1.4E1,3E1,7E1,1E0,1.9E1,4.7E1,5.8E1,5.4E1,1.9E2,1.4E1,4.7E1,2.16E2,1.53E2,1.59E2,9E0,9E0,1.7E1,1.5E1,2.9E2,8E0,1E0,5E0,5E0,2.6E1,7E0,8E0,1E0,1E1,1E0,2E0,2E0,2E1,1E0,9E0,3.9E1,3E0,1E0,5E0,9E0,1E0,1E0,1E0,2E0,1E0,1.5E1,4E0,6E1,4.4E1,1.7E1,1.6E1,1E1,1E0,6E0,1E1,8E0,6E0,1.9E1,1.1E1,1E0,6.9E1,1.3E1,6E0,4.5E1,2E0,1.1E1,4.7E1,5E0,4.9E1,5E0,1.85E2,1.2E1,2E0,3E0,4.4E1,2.2E1,1.94E2,1.9E1,1.34E2,3.6E1,1.23E2,6E0,3E0,1E0,8E0,1.4E1,3E0,3E0,2.87E2,3E0,2E0,2.5E1,1E0,2E0,5E0,7E0,1E0,1E0,1.9E1,1E0,3.8E1,2E0,1E0,2E0,2E0,3.8E1,2.2E1,3.9E1,5E0,1.3E1,4E0,1.5E1,1E0,1E0,5E0,8E0,2E0,6E0,2E0,2E0,1.7E1,3E0,8E0,6.8E1,1E0],"tree_param":{"num_deleted":"0","num_feature":"18","num_nodes":"217","size_leaf_vector":"1"}},{"base_weights":[-4.1556987E-3,4.057409E-2,-3.354624E-2,8.244666E-2,-1.1191406E-2,-2.8078318E-1,-2.6353665E-2,-2.6717756E-2,1.2341953E-1,2.4529528E-3,-3.4382966E-1,5.4920193E-2,-4.1146368E-1,2.7769564E-2,-4.891827E-2,-2.93899E-1,2.7819788E-2,1.3761555E-1,-1.8824176E-1,2.7423623E-1,-1.0078703E-2,1.2616904E-2,-4.129099E-1,1.4488613E-2,-1.6345246E-1,9.73391E-3,-4.512885E-1,4.748735E-2,-3.268161E-1,-7.844146E-2,4.5663312E-2,-3.7787858E-1,1.4932635E-1,-3.7319954E-3,1.4526355E-2,-1.4695153E-2,1.4447351E-1,-3.6913058E-1,1.0434892E-1,3.3397382E-1,-1.3002299E-2,8.71109E-3,-2.2108755E-1,-1.50655415E-2,1.2162283E-2,1.5446009E-1,-1.4393676E-2,-1.2350483E-2,1.2900452E-2,-8.559414E-4,-1.5232231E-2,3.5668097E-2,3.9284435E-1,8.620646E-2,-1.5210509E-2,-1.2070549E-1,-7.191895E-3,9.93939E-2,-1.4994113E-1,1.26133645E-2,-4.3556312E-1,-1.2750964E-2,1.3617307E-2,-2.0053987E-1,5.4588787E-2,-1.1473459E-1,1.6202572E-1,1.2359217E-2,-1.4927935E-2,-1.3514172E-2,1.448541E-2,1.4705055E-2,-4.1015153E-3,-2.9634678E-1,2.0105816E-2,-4.2744756E-1,4.4621635E-2,1.3863001E-2,-1.2783292E-2,1.2900452E-2,-1.2954667E-2,6.0046174E-2,-1.4173467E-1,5.781688E-3,1.488951E-2,1.3962588E-2,-1.4062489E-2,3.3201513E-1,-1.2952639E-1,1.7236169E-1,-3.9822016E-2,1.4150834E-1,-1.8056212E-1,-3.830224E-1,4.2571332E-2,-1.5316302E-2,1.24496445E-2,-3.634355E-1,2.8304258E-1,-1.5592772E-1,1.6241655E-1,-1.4920805E-2,7.7055655E-2,1.7383929E-1,-1.7283887E-1,-1.4088046E-2,1.384564E-2,1.2467643E-2,-3.8213107E-1,-3.126761E-2,9.1686085E-2,-1.5171884E-2,-6.9264364E-3,1.45340245E-2,-2.081456E-1,2.1206038E-1,2.1505702E-2,-3.5739067E-1,1.6093403E-1,1.2869814E-2,-1.254054E-2,-1.3089511E-2,1.4338934E-2,-1.8826428E-1,-6.4224504E-2,3.433876E-1,-7.340931E-2,3.7599918E-3,-2.2279505E-1,4.2225536E-2,2.4188699E-1,2.1132125E-1,-4.08884E-1,1.2696988E-2,-4.3449464E-1,-1.4629208E-2,1.625537E-1,1.2616904E-2,-1.2969906E-2,1.4391886E-2,-1.28012905E-2,9.925624E-4,-1.2123214E-2,2.9015278E-3,1.1983185E-2,1.4281579E-2,-3.8187422E-3,6.180846E-3,1.7045547E-3,-1.4914757E-2,2.7085822E-3,6.9749556E-5,-1.4947884E-2,-1.6813687E-3,6.4691403E-3,8.292315E-3,2.5458573E-4,1.2390094E-2,-1.2783292E-2,-1.445256E-2,4.657583E-3,-6.4787487E-3,8.4774485E-3,-1.0515859E-2,1.4053793E-3,1.249997E-2,-1.2217576E-2,1.150277E-2,-5.005926E-3,-1.1103898E-2,-4.2101857E-3,-1.4652035E-2,-1.5706067E-3,-1.3822399E-2,1.333105E-2,1.4262832E-2,-6.930475E-3,4.2760386E-3,-3.1673003E-3,-1.0214159E-2,9.965105E-3,6.3946443E-3,-2.6921455E-3,-1.3983875E-3,9.254837E-3,-1.401263E-2,1.4887759E-2,-1.4996672E-2,1.2766291E-2,8.8320674E-5,-1.50457695E-2,9.96513E-3,-5.0170007E-3],"categories":[],"categories_nodes":[],"categories_segments":[],"categories_sizes":[],"default_left":[0,0,0,0,0,0,0,0,0,0,0,0,0,0,0,0,0,0,0,0,0,0,0,0,0,0,0,0,0,0,0,0,0,0,0,0,0,0,0,0,0,0,0,0,0,0,0,0,0,0,0,0,0,0,0,0,0,0,0,0,0,0,0,0,0,0,0,0,0,0,0,0,0,0,0,0,0,0,0,0,0,0,0,0,0,0,0,0,0,0,0,0,0,0,0,0,0,0,0,0,0,0,0,0,0,0,0,0,0,0,0,0,0,0,0,0,0,0,0,0,0,0,0,0,0,0,0,0,0,0,0,0,0,0,0,0,0,0,0,0,0,0,0,0,0,0,0,0,0,0,0,0,0,0,0,0,0,0,0,0,0,0,0,0,0,0,0,0,0,0,0,0,0,0,0,0,0,0,0,0,0,0,0,0,0,0,0,0,0,0,0,0,0],"id":1,"left_children":[1,3,5,7,9,11,13,15,17,19,21,23,25,27,29,31,33,35,37,39,41,-1,43,-1,45,47,49,51,53,55,57,59,61,63,-1,-1,65,67,69,71,-1,73,75,-1,-1,77,-1,-1,-1,79,-1,81,83,85,-1,87,89,91,93,-1,95,-1,-1,97,99,101,103,-1,-1,-1,-1,-1,105,107,109,111,113,-1,-1,-1,-1,115,117,119,-1,-1,-1,121,123,125,127,129,131,133,135,-1,-1,137,139,141,143,-1,145,147,149,-1,-1,-1,151,153,155,-1,157,-1,159,161,163,165,167,-1,-1,-1,-1,169,171,173,175,177,179,181,183,185,187,-1,189,-1,191,-1,-1,-1,-1,-1,-1,-1,-1,-1,-1,-1,-1,-1,-1,-1,-1,-1,-1,-1,-1,-1,-1,-1,-1,-1,-1,-1,-1,-1,-1,-1,-1,-1,-1,-1,-1,-1,-1,-1,-1,-1,-1,-1,-1,-1,-1,-1,-1,-1,-1,-1,-1,-1,-1,-1,-1],"loss_changes":[2.483902E0,1.6241663E0,2.025968E0,1.8533895E0,1.5216618E0,1.4179053E0,1.3537142E0,1.6514208E0,1.3380952E0,1.0980628E0,7.261535E-1,8.589344E-1,3.9036846E-1,2.2839396E0,2.1849663E0,7.2696877E-1,1.3299619E0,1.236434E0,7.073419E-1,6.236155E-1,1.2224551E0,0E0,8.3113694E-1,0E0,6.2205315E-1,4.1268465E-1,4.4759178E-1,1.259098E0,1.2220334E0,1.7951503E0,1.9601808E0,7.7687526E-1,5.772636E-1,1.0148164E0,0E0,0E0,1.3015351E0,7.97585E-1,1.095505E0,6.568085E-1,0E0,9.856364E-1,1.386434E0,0E0,0E0,5.8928734E-1,0E0,0E0,0E0,4.326843E-1,0E0,1.2957754E0,3.7120008E-1,1.0981947E0,0E0,1.5033641E0,1.3033078E0,1.7292114E0,1.8077942E0,0E0,8.805392E-1,0E0,0E0,1.6136903E0,1.5536693E0,1.3115792E0,1.0633883E0,0E0,0E0,0E0,0E0,0E0,9.223391E-1,6.4946645E-1,1.005301E0,4.0991879E-1,1.2413194E0,0E0,0E0,0E0,0E0,1.5410516E0,2.375677E0,4.179221E-1,0E0,0E0,0E0,7.926862E-1,1.4059E0,1.443339E0,1.5010834E0,1.2655418E0,1.7370749E0,7.861879E-1,1.4046885E0,0E0,0E0,7.5376606E-1,7.27464E-1,1.0546393E0,6.926249E-1,0E0,9.7405815E-1,8.6055565E-1,7.674899E-1,0E0,0E0,0E0,3.7824237E-1,9.194932E-1,1.7084826E0,0E0,4.1016135E-1,0E0,7.0272577E-1,1.4829257E0,1.8818682E0,7.197888E-1,1.0759506E0,0E0,0E0,0E0,0E0,1.6981587E0,9.2425656E-1,1.5300314E0,1.1978391E0,2.2265463E0,2.2333243E0,1.400035E0,1.108115E0,1.3774014E0,8.6620164E-1,0E0,4.3376684E-1,0E0,9.829015E-1,0E0,0E0,0E0,0E0,0E0,0E0,0E0,0E0,0E0,0E0,0E0,0E0,0E0,0E0,0E0,0E0,0E0,0E0,0E0,0E0,0E0,0E0,0E0,0E0,0E0,0E0,0E0,0E0,0E0,0E0,0E0,0E0,0E0,0E0,0E0,0E0,0E0,0E0,0E0,0E0,0E0,0E0,0E0,0E0,0E0,0E0,0E0,0E0,0E0,0E0,0E0,0E0,0E0,0E0,0E0,0E0],"parents":[2147483647,0,0,1,1,2,2,3,3,4,4,5,5,6,6,7,7,8,8,9,9,10,10,11,11,12,12,13,13,14,14,15,15,16,16,17,17,18,18,19,19,20,20,22,22,24,24,25,25,26,26,27,27,28,28,29,29,30,30,31,31,32,32,33,33,36,36,37,37,38,38,39,39,41,41,42,42,45,45,49,49,51,51,52,52,53,53,55,55,56,56,57,57,58,58,60,60,63,63,64,64,65,65,66,66,72,72,73,73,74,74,75,75,76,76,81,81,82,82,83,83,87,87,88,88,89,89,90,90,91,91,92,92,93,93,94,94,97,97,98,98,99,99,100,100,102,102,103,103,104,104,108,108,109,109,110,110,112,112,114,114,115,115,116,116,117,117,118,118,123,123,124,124,125,125,126,126,127,127,128,128,129,129,130,130,131,131,132,132,134,134,136,136],"right_children":[2,4,6,8,10,12,14,16,18,20,22,24,26,28,30,32,34,36,38,40,42,-1,44,-1,46,48,50,52,54,56,58,60,62,64,-1,-1,66,68,70,72,-1,74,76,-1,-1,78,-1,-1,-1,80,-1,82,84,86,-1,88,90,92,94,-1,96,-1,-1,98,100,102,104,-1,-1,-1,-1,-1,106,108,110,112,114,-1,-1,-1,-1,116,118,120,-1,-1,-1,122,124,126,128,130,132,134,136,-1,-1,138,140,142,144,-1,146,148,150,-1,-1,-1,152,154,156,-1,158,-1,160,162,164,166,168,-1,-1,-1,-1,170,172,174,176,178,180,182,184,186,188,-1,190,-1,192,-1,-1,-1,-1,-1,-1,-1,-1,-1,-1,-1,-1,-1,-1,-1,-1,-1,-1,-1,-1,-1,-1,-1,-1,-1,-1,-1,-1,-1,-1,-1,-1,-1,-1,-1,-1,-1,-1,-1,-1,-1,-1,-1,-1,-1,-1,-1,-1,-1,-1,-1,-1,-1,-1,-1,-1],"split_conditions":[-1E0,1E0,1.5E0,8.739255E-1,4E0,-2.3E1,8.831615E-1,2.5E0,1.5403225E0,-3E0,-1E1,-5.2947265E-1,-8.2E1,1.43083E0,5.3E1,2E2,1.3791208E0,5.426357E-1,3E1,5.4E1,2E2,1.2616904E-2,6.3E1,1.4488613E-2,-1E0,2.5E1,1E0,-3.6E1,-2.8E1,5E0,5.3624225E-1,-7.8521717E-1,-8.6E1,-1E0,1.4526355E-2,-1.4695153E-2,-1E1,-6E0,-3.3E1,4E1,-1.3002299E-2,-1.36E2,8E0,-1.50655415E-2,1.2162283E-2,-8.7E1,-1.4393676E-2,-1.2350483E-2,1.2900452E-2,-2E0,-1.5232231E-2,3E0,3E0,5E0,-1.5210509E-2,5.405405E-1,6E0,1.2524272E0,3E0,1.26133645E-2,0E0,-1.2750964E-2,1.3617307E-2,-3E0,0E0,-4.868621E-1,4E0,1.2359217E-2,-1.4927935E-2,-1.3514172E-2,1.448541E-2,1.4705055E-2,3E1,-1.84E2,1.2470442E-1,1.03E2,-7E0,1.3863001E-2,-1.2783292E-2,1.2900452E-2,-1.2954667E-2,1E0,1.0508474E0,-3.5E1,1.488951E-2,1.3962588E-2,-1.4062489E-2,-3E0,1.0418848E0,1.8E1,1E2,-7E0,0E0,-6E1,-4.3E1,-1.5316302E-2,1.24496445E-2,-8E1,5E0,-8.5E1,5E0,-1.4920805E-2,-3.9E1,-2E0,-4.4936198E-1,-1.4088046E-2,1.384564E-2,1.2467643E-2,-4.8E1,1.06E2,8.905775E-1,-1.5171884E-2,1.58E2,1.45340245E-2,4.3939647E-1,-7.5E1,-3E0,-3E0,3.8763565E-1,1.2869814E-2,-1.254054E-2,-1.3089511E-2,1.4338934E-2,-9E0,-3E0,-2.7E1,-1.05E2,0E0,1.1840796E0,-1.879425E-1,-6.6666664E1,5.8E1,8E1,1.2696988E-2,-2.9E1,-1.4629208E-2,1.04E2,1.2616904E-2,-1.2969906E-2,1.4391886E-2,-1.28012905E-2,9.925624E-4,-1.2123214E-2,2.9015278E-3,1.1983185E-2,1.4281579E-2,-3.8187422E-3,6.180846E-3,1.7045547E-3,-1.4914757E-2,2.7085822E-3,6.9749556E-5,-1.4947884E-2,-1.6813687E-3,6.4691403E-3,8.292315E-3,2.5458573E-4,1.2390094E-2,-1.2783292E-2,-1.445256E-2,4.657583E-3,-6.4787487E-3,8.4774485E-3,-1.0515859E-2,1.4053793E-3,1.249997E-2,-1.2217576E-2,1.150277E-2,-5.005926E-3,-1.1103898E-2,-4.2101857E-3,-1.4652035E-2,-1.5706067E-3,-1.3822399E-2,1.333105E-2,1.4262832E-2,-6.930475E-3,4.2760386E-3,-3.1673003E-3,-1.0214159E-2,9.965105E-3,6.3946443E-3,-2.6921455E-3,-1.3983875E-3,9.254837E-3,-1.401263E-2,1.4887759E-2,-1.4996672E-2,1.2766291E-2,8.8320674E-5,-1.50457695E-2,9.96513E-3,-5.0170007E-3],"split_indices":[2,7,12,11,3,0,9,12,11,4,2,17,1,11,6,14,10,9,1,1,14,0,1,0,3,0,2,0,1,2,17,17,0,4,0,0,2,2,0,6,0,0,1,0,0,0,0,0,0,0,0,4,12,2,0,11,2,10,2,0,7,0,0,2,14,17,4,0,0,0,0,0,0,0,17,0,0,0,0,0,0,2,10,0,0,0,0,4,10,0,14,1,3,1,1,0,0,1,12,6,12,0,0,2,17,0,0,0,6,6,9,0,0,0,17,14,4,3,17,0,0,0,0,0,4,0,6,3,10,17,14,1,1,0,0,0,6,0,0,0,0,0,0,0,0,0,0,0,0,0,0,0,0,0,0,0,0,0,0,0,0,0,0,0,0,0,0,0,0,0,0,0,0,0,0,0,0,0,0,0,0,0,0,0,0,0,0,0,0,0,0,0,0],"split_type":[0,0,0,0,0,0,0,0,0,0,0,0,0,0,0,0,0,0,0,0,0,0,0,0,0,0,0,0,0,0,0,0,0,0,0,0,0,0,0,0,0,0,0,0,0,0,0,0,0,0,0,0,0,0,0,0,0,0,0,0,0,0,0,0,0,0,0,0,0,0,0,0,0,0,0,0,0,0,0,0,0,0,0,0,0,0,0,0,0,0,0,0,0,0,0,0,0,0,0,0,0,0,0,0,0,0,0,0,0,0,0,0,0,0,0,0,0,0,0,0,0,0,0,0,0,0,0,0,0,0,0,0,0,0,0,0,0,0,0,0,0,0,0,0,0,0,0,0,0,0,0,0,0,0,0,0,0,0,0,0,0,0,0,0,0,0,0,0,0,0,0,0,0,0,0,0,0,0,0,0,0,0,0,0,0,0,0,0,0,0,0,0,0],"sum_hessian":[1.889E3,7.49E2,1.14E3,4.14E2,3.35E2,3.2E1,1.108E3,1.13E2,3.01E2,3.22E2,1.3E1,9E0,2.3E1,3.26E2,7.82E2,1.9E1,9.4E1,2.88E2,1.3E1,1.4E1,3.08E2,1E0,1.2E1,3E0,6E0,2E0,2.1E1,3.09E2,1.7E1,5.96E2,1.86E2,1.6E1,3E0,8.8E1,6E0,3E0,2.85E2,8E0,5E0,1.3E1,1E0,2.83E2,2.5E1,1.1E1,1E0,3E0,3E0,1E0,1E0,2E0,1.9E1,2.99E2,1E1,5E0,1.2E1,3.74E2,2.22E2,1.46E2,4E1,1E0,1.5E1,1E0,2E0,2E1,6.8E1,1.8E1,2.67E2,1E0,7E0,2E0,3E0,9E0,4E0,1E1,2.73E2,1.4E1,1.1E1,2E0,1E0,1E0,1E0,2.63E2,3.6E1,2E0,8E0,3E0,2E0,7E0,3.67E2,3.4E1,1.88E2,1.27E2,1.9E1,1.8E1,2.2E1,1.4E1,1E0,1.5E1,5E0,2.3E1,4.5E1,6E0,1.2E1,2.58E2,9E0,2E0,2E0,1E0,9E0,1.59E2,1.14E2,1.2E1,2E0,4E0,7E0,5.3E1,2.1E2,2.1E1,1.5E1,1E0,1E0,1E0,6E0,1.93E2,1.74E2,2E1,1.4E1,1.52E2,3.6E1,6.4E1,6.3E1,7E0,1.2E1,1E0,1.7E1,4E0,1.8E1,1E0,1.4E1,4E0,1E0,1.3E1,1E1,3.5E1,1E1,4E0,8E0,2.08E2,5E1,4E0,5E0,2E0,7E0,1.45E2,1.4E1,3.6E1,7.8E1,1E0,1E0,4E0,3E0,7E0,4.6E1,1.3E1,1.97E2,1E0,2E1,9E0,6E0,4.3E1,1.5E2,5E0,1.69E2,2E0,1.8E1,3E0,1.1E1,6.7E1,8.5E1,3E1,6E0,2.8E1,3.6E1,1.1E1,5.2E1,2E0,5E0,1.1E1,1E0,2E0,1.5E1,1.2E1,6E0],"tree_param":{"num_deleted":"0","num_feature":"18","num_nodes":"193","size_leaf_vector":"1"}},{"base_weights":[5.3395634E-4,-1.2044112E-1,1.15985405E-2,-3.8138554E-2,-2.8260154E-1,1.47565305E-2,-3.096302E-1,3.9071403E-2,-2.1158022E-1,-1.9048639E-3,-3.5069886E-1,-4.8374645E-3,6.312465E-2,-4.1890246E-1,1.6022624E-1,4.0080777E-1,-2.955075E-2,-9.26703E-2,-1.5088746E-2,1.4138953E-2,-2.086136E-1,1.24553535E-2,-3.7168762E-1,-9.574729E-3,4.1127592E-1,2.3017912E-1,3.7006263E-2,-1.5095103E-2,1.2476582E-2,1.4018004E-2,-1.2598702E-2,-1.2758812E-2,1.496894E-2,-2.3259015E-1,1.308719E-1,-1.8619625E-1,1.4462146E-2,-1.45801455E-2,1.35575775E-2,-4.3402648E-1,-7.3681645E-2,-1.929307E-2,1.3690518E-1,1.4851488E-2,-1.2564145E-2,-1.4422768E-2,2.6620334E-1,1.4876416E-2,2.6692668E-2,4.4079315E-2,-4.33302E-1,1.9431981E-1,-1.45146595E-2,6.589637E-2,-3.3187324E-1,-1.5064889E-2,-2.6989013E-1,-1.4607496E-2,1.4095146E-2,-1.2256615E-2,-2.6562414E-1,6.0983535E-2,3.787725E-1,4.4306317E-1,1.7151394E-1,7.164742E-2,-4.724123E-2,-3.2409447E-1,1.4713171E-2,1.2258149E-2,-1.5225989E-2,3.3280843E-1,-4.66211E-2,-2.4475047E-1,1.4342751E-2,-4.0469694E-1,1.2233944E-2,1.6118762E-1,-1.4787904E-2,2.2366669E-3,-1.0637909E-1,-1.5006407E-1,-1.4948084E-2,2.9597807E-1,-2.8220216E-2,2.2209135E-3,1.5066339E-2,-4.483957E-3,1.4974136E-2,1.02538586E-1,1.4804529E-2,5.765115E-2,1.475893E-2,-1.01639494E-1,2.0343232E-1,-1.4753932E-2,1.2659381E-2,4.8711305E-3,1.4751441E-2,9.731988E-3,-1.4668434E-2,-1.4374596E-2,1.2088119E-2,-3.0806093E-4,-1.4986695E-2,1.39403185E-2,-1.2378857E-2,-4.183219E-4,3.0917185E-3,-9.468894E-3,-1.4861271E-3,-9.514506E-3,1.4604711E-2,1.47522995E-2,2.8563174E-4,-4.16928E-3,8.937095E-3,-1.3396402E-2,1.3529274E-2,-1.2836795E-2,1.2579988E-2,5.6692343E-3,-1.4599288E-2,-1.5281001E-2,2.0625168E-3,-7.3461123E-3,-2.69555E-4,-1.4092192E-2,8.860083E-3],"categories":[],"categories_nodes":[],"categories_segments":[],"categories_sizes":[],"default_left":[0,0,0,0,0,0,0,0,0,0,0,0,0,0,0,0,0,0,0,0,0,0,0,0,0,0,0,0,0,0,0,0,0,0,0,0,0,0,0,0,0,0,0,0,0,0,0,0,0,0,0,0,0,0,0,0,0,0,0,0,0,0,0,0,0,0,0,0,0,0,0,0,0,0,0,0,0,0,0,0,0,0,0,0,0,0,0,0,0,0,0,0,0,0,0,0,0,0,0,0,0,0,0,0,0,0,0,0,0,0,0,0,0,0,0,0,0,0,0,0,0,0,0,0,0,0,0,0,0],"id":2,"left_children":[1,3,5,7,9,11,13,15,17,19,21,23,25,27,29,31,33,35,-1,-1,37,-1,39,41,43,45,47,-1,-1,-1,-1,-1,-1,49,51,53,-1,-1,-1,55,57,59,61,-1,-1,-1,63,-1,65,67,69,71,-1,73,75,-1,77,-1,-1,79,81,83,85,87,89,91,93,95,-1,-1,-1,97,99,101,-1,103,-1,105,-1,107,109,111,-1,113,115,117,-1,119,-1,121,-1,123,-1,125,127,-1,-1,-1,-1,-1,-1,-1,-1,-1,-1,-1,-1,-1,-1,-1,-1,-1,-1,-1,-1,-1,-1,-1,-1,-1,-1,-1,-1,-1,-1,-1,-1,-1,-1],"loss_changes":[2.4313343E0,2.029084E0,1.6891226E0,1.3571326E0,9.786391E-1,1.5621285E0,8.464556E-1,1.7454246E0,1.0363806E0,1.000178E0,6.8750525E-1,2.3134043E0,2.0715752E0,8.592248E-1,5.8761364E-1,8.5682464E-1,1.9350327E0,1.1934305E0,0E0,0E0,1.305424E0,0E0,7.4014616E-1,1.6521335E0,8.50425E-1,1.6498618E0,1.903569E0,0E0,0E0,0E0,0E0,0E0,0E0,1.4595962E0,1.2953286E0,7.101481E-1,0E0,0E0,0E0,2.9160643E-1,1.6039318E0,1.8854368E0,1.3210254E0,0E0,0E0,0E0,1.0089359E0,0E0,1.3375362E0,1.8369229E0,8.623717E-1,1.0113804E0,0E0,9.2725563E-1,6.849278E-1,0E0,8.650979E-1,0E0,0E0,1.4436272E0,7.637768E-1,1.1591649E0,7.381885E-1,4.4347954E-1,8.5657644E-1,1.4334574E0,2.0798938E0,7.682299E-1,0E0,0E0,0E0,4.823866E-1,1.803812E0,6.4644504E-1,0E0,3.7677908E-1,0E0,5.7437855E-1,0E0,1.4438856E0,1.6553477E0,2.074964E0,0E0,8.1197846E-1,1.4019134E0,8.569747E-1,0E0,4.181356E-1,0E0,1.6147864E0,0E0,1.3303715E0,0E0,1.6104938E0,1.5885702E0,0E0,0E0,0E0,0E0,0E0,0E0,0E0,0E0,0E0,0E0,0E0,0E0,0E0,0E0,0E0,0E0,0E0,0E0,0E0,0E0,0E0,0E0,0E0,0E0,0E0,0E0,0E0,0E0,0E0,0E0,0E0,0E0,0E0,0E0],"parents":[2147483647,0,0,1,1,2,2,3,3,4,4,5,5,6,6,7,7,8,8,9,9,10,10,11,11,12,12,13,13,14,14,15,15,16,16,17,17,20,20,22,22,23,23,24,24,25,25,26,26,33,33,34,34,35,35,39,39,40,40,41,41,42,42,46,46,48,48,49,49,50,50,51,51,53,53,54,54,56,56,59,59,60,60,61,61,62,62,63,63,64,64,65,65,66,66,67,67,71,71,72,72,73,73,75,75,77,77,79,79,80,80,81,81,83,83,84,84,85,85,87,87,89,89,91,91,93,93,94,94],"right_children":[2,4,6,8,10,12,14,16,18,20,22,24,26,28,30,32,34,36,-1,-1,38,-1,40,42,44,46,48,-1,-1,-1,-1,-1,-1,50,52,54,-1,-1,-1,56,58,60,62,-1,-1,-1,64,-1,66,68,70,72,-1,74,76,-1,78,-1,-1,80,82,84,86,88,90,92,94,96,-1,-1,-1,98,100,102,-1,104,-1,106,-1,108,110,112,-1,114,116,118,-1,120,-1,122,-1,124,-1,126,128,-1,-1,-1,-1,-1,-1,-1,-1,-1,-1,-1,-1,-1,-1,-1,-1,-1,-1,-1,-1,-1,-1,-1,-1,-1,-1,-1,-1,-1,-1,-1,-1,-1,-1],"split_conditions":[-5.7E1,3E0,1.7777778E0,3.3333332E1,6.603053E-1,3.4576827E-1,8.0133253E-1,-7.747105E-1,4E1,-3.5819703E-1,-1.1838613E0,1.6802031E0,4.3091863E-1,3E2,1E0,-1.264239E0,-1.8382726E-2,2.5E1,-1.5088746E-2,1.4138953E-2,2E0,1.24553535E-2,9E0,1.14E2,1.17E2,-9.8E1,-1.2330682E0,-1.5095103E-2,1.2476582E-2,1.4018004E-2,-1.2598702E-2,-1.2758812E-2,1.496894E-2,-3.1175742E-2,1.12E2,6.903766E-1,1.4462146E-2,-1.45801455E-2,1.35575775E-2,7.3429954E-1,-6.7E1,1.4063927E0,4E0,1.4851488E-2,-1.2564145E-2,-1.4422768E-2,-2.5E1,1.4876416E-2,1.0989584E0,-3E0,3.5E0,4.9166974E-1,-1.45146595E-2,-1.5E1,4.5E0,-1.5064889E-2,-6.2E1,-1.4607496E-2,1.4095146E-2,1.8455163E-1,3E0,8.374656E-1,2.5E0,3.5466105E-1,1.2518249E0,1.0862069E0,6E0,-6.7E1,1.4713171E-2,1.2258149E-2,-1.5225989E-2,-7.2E1,3.4E1,-8E1,1.4342751E-2,2E0,1.2233944E-2,-2E0,-1.4787904E-2,4.4602845E-2,-5E0,1E0,-1.4948084E-2,1.7096775E0,4.7E1,-1.8E1,1.5066339E-2,-4.3E1,1.4974136E-2,4E1,1.4804529E-2,-1.59E2,1.475893E-2,6.770582E-1,-7.5E1,-1.4753932E-2,1.2659381E-2,4.8711305E-3,1.4751441E-2,9.731988E-3,-1.4668434E-2,-1.4374596E-2,1.2088119E-2,-3.0806093E-4,-1.4986695E-2,1.39403185E-2,-1.2378857E-2,-4.183219E-4,3.0917185E-3,-9.468894E-3,-1.4861271E-3,-9.514506E-3,1.4604711E-2,1.47522995E-2,2.8563174E-4,-4.16928E-3,8.937095E-3,-1.3396402E-2,1.3529274E-2,-1.2836795E-2,1.2579988E-2,5.6692343E-3,-1.4599288E-2,-1.5281001E-2,2.0625168E-3,-7.3461123E-3,-2.69555E-4,-1.4092192E-2,8.860083E-3],"split_indices":[1,2,11,14,10,17,16,16,0,16,17,11,17,14,2,16,16,0,0,0,4,0,15,0,0,6,16,0,0,0,0,0,0,17,0,10,0,0,0,10,1,9,2,0,0,0,14,0,10,0,15,16,0,6,12,0,1,0,0,17,2,11,12,17,11,10,2,1,0,0,0,1,6,1,0,12,0,0,0,17,2,2,0,9,6,1,0,0,0,6,0,6,0,17,14,0,0,0,0,0,0,0,0,0,0,0,0,0,0,0,0,0,0,0,0,0,0,0,0,0,0,0,0,0,0,0,0,0,0],"split_type":[0,0,0,0,0,0,0,0,0,0,0,0,0,0,0,0,0,0,0,0,0,0,0,0,0,0,0,0,0,0,0,0,0,0,0,0,0,0,0,0,0,0,0,0,0,0,0,0,0,0,0,0,0,0,0,0,0,0,0,0,0,0,0,0,0,0,0,0,0,0,0,0,0,0,0,0,0,0,0,0,0,0,0,0,0,0,0,0,0,0,0,0,0,0,0,0,0,0,0,0,0,0,0,0,0,0,0,0,0,0,0,0,0,0,0,0,0,0,0,0,0,0,0,0,0,0,0,0,0],"sum_hessian":[1.816E3,1.52E2,1.664E3,1.01E2,5.1E1,1.648E3,1.6E1,7E1,3.1E1,1E1,4.1E1,1.173E3,4.75E2,1.3E1,3E0,1.1E1,5.9E1,2.2E1,9E0,3E0,7E0,1E0,4E1,1.16E3,1.3E1,6.4E1,4.11E2,1.2E1,1E0,2E0,1E0,1E0,1E1,2.6E1,3.3E1,1.9E1,3E0,5E0,2E0,3.3E1,7E0,1.088E3,7.2E1,1.2E1,1E0,3E0,6.1E1,9E0,4.02E2,1.1E1,1.5E1,3E1,3E0,7E0,1.2E1,2.4E1,9E0,4E0,3E0,1.058E3,3E1,5.5E1,1.7E1,2.1E1,4E1,2.5E2,1.52E2,6E0,5E0,1E0,1.4E1,1.9E1,1.1E1,4E0,3E0,1.1E1,1E0,3E0,6E0,9.17E2,1.41E2,2E1,1E1,1.5E1,4E1,4E0,1.3E1,2E0,1.9E1,3.3E1,7E0,2.42E2,8E0,1.25E2,2.7E1,5E0,1E0,9E0,1E1,6E0,5E0,3E0,1E0,2E0,9E0,2E0,1E0,7.9E2,1.27E2,3.1E1,1.1E2,1.6E1,4E0,9E0,6E0,3E1,1E1,2E0,2E0,1E0,1E0,2.9E1,4E0,4E0,2.38E2,5E1,7.5E1,3E0,2.4E1],"tree_param":{"num_deleted":"0","num_feature":"18","num_nodes":"129","size_leaf_vector":"1"}},{"base_weights":[-2.9615771E-3,-2.0318738E-1,2.9047288E-3,-7.608141E-2,-3.4371373E-1,-1.5358431E-2,6.0170814E-2,1.4150539E-2,-1.96369E-1,1.4663802E-1,-1.5242144E-2,-2.6902456E-3,-1.5153326E-1,3.3013695E-1,3.144985E-2,-2.9913598E-1,1.4168727E-2,-1.4445629E-2,1.4199073E-2,-6.762336E-2,1.8964088E-2,-1.9588763E-1,3.7301096E-1,4.270007E-1,1.1067923E-1,1.7187223E-2,2.7208662E-1,-4.3060085E-1,9.6671306E-2,-8.757547E-2,2.0979297E-1,-7.221936E-3,8.717966E-2,-6.436922E-2,-3.0861902E-1,1.47286095E-2,-1.3112518E-2,4.5983014E-1,-1.2603416E-2,2.9140544E-1,-1.4410531E-2,1.4054467E-1,-1.5285352E-2,2.4761986E-3,4.238151E-1,-1.5174542E-2,1.2692061E-2,-1.4394757E-2,1.4710685E-2,1.4796054E-1,-1.10525034E-1,3.674152E-1,-2.8902048E-1,1.6890554E-2,-1.3127653E-1,1.6437651E-1,-1.6321022E-2,-3.3137065E-1,2.1300146E-2,-3.8835758E-1,-3.0793192E-2,-1.1948703E-2,1.510868E-2,-1.3061254E-2,3.7920433E-1,8.921165E-3,3.0122715E-1,3.3730385E-1,-3.1663544E-2,1.42077925E-2,-2.823457E-1,1.5158642E-2,-1.32954875E-2,-1.4679171E-2,2.3349662E-1,-6.747888E-2,-2.271649E-1,4.2528382E-1,-1.2948452E-2,-1.4530755E-2,1.2497489E-2,-2.7055945E-2,7.593964E-2,-4.8178572E-2,-3.0310497E-1,1.8513492E-1,-3.2318258E-1,-5.0345328E-2,1.469499E-2,1.2769414E-2,-4.0604016E-1,6.710042E-2,-1.4748742E-2,1.6609186E-1,-4.2859736E-1,-1.4113254E-2,2.4333505E-1,-4.1746898E-3,1.4851318E-2,-2.4707142E-1,1.09020345E-1,-9.4334625E-2,3.673603E-1,-1.385606E-2,1.4886418E-2,-3.2448763E-1,-1.2777652E-2,1.2836712E-2,-1.43757E-2,-1.3688395E-2,9.239654E-3,2.3643223E-3,-4.0173507E-3,-7.899876E-3,1.4070863E-2,-1.2596299E-2,1.4992365E-2,-5.5914074E-3,9.4430776E-5,1.6016926E-3,9.506233E-3,-2.745377E-3,1.0604116E-2,1.9041979E-3,-1.1959324E-2,6.2021096E-3,-9.027421E-3,-1.4757639E-2,1.2818411E-2,7.373922E-4,-7.1971673E-3,-1.5144038E-2,1.275406E-2,-9.999075E-5,1.4446442E-2,-1.2136528E-2,1.40254265E-2,-1.3761177E-2,7.198782E-5,1.47709055E-2,-1.3860419E-2,-1.2573818E-2,1.233428E-2,7.2629405E-3,-1.4960711E-2,1.48713365E-2,4.631625E-4,-1.4313818E-2,1.3986762E-2,-1.2406057E-2,1.21316025E-2,-1.3196005E-2,1.3549989E-2,3.4167006E-4,-8.473014E-3],"categories":[],"categories_nodes":[],"categories_segments":[],"categories_sizes":[],"default_left":[0,0,0,0,0,0,0,0,0,0,0,0,0,0,0,0,0,0,0,0,0,0,0,0,0,0,0,0,0,0,0,0,0,0,0,0,0,0,0,0,0,0,0,0,0,0,0,0,0,0,0,0,0,0,0,0,0,0,0,0,0,0,0,0,0,0,0,0,0,0,0,0,0,0,0,0,0,0,0,0,0,0,0,0,0,0,0,0,0,0,0,0,0,0,0,0,0,0,0,0,0,0,0,0,0,0,0,0,0,0,0,0,0,0,0,0,0,0,0,0,0,0,0,0,0,0,0,0,0,0,0,0,0,0,0,0,0,0,0,0,0,0,0,0,0,0,0,0,0,0,0,0,0,0,0],"id":3,"left_children":[1,3,5,7,9,11,13,-1,15,17,-1,19,21,23,25,27,-1,-1,-1,29,31,33,35,37,39,41,43,45,47,49,51,53,55,57,59,-1,-1,61,-1,63,-1,65,67,69,71,-1,-1,-1,-1,73,75,77,79,81,83,85,87,89,91,93,95,-1,-1,-1,97,99,101,103,105,-1,107,-1,-1,-1,109,111,113,115,-1,-1,-1,117,119,121,123,125,127,129,-1,-1,131,133,-1,135,137,-1,139,141,-1,143,145,147,149,-1,-1,151,153,-1,-1,-1,-1,-1,-1,-1,-1,-1,-1,-1,-1,-1,-1,-1,-1,-1,-1,-1,-1,-1,-1,-1,-1,-1,-1,-1,-1,-1,-1,-1,-1,-1,-1,-1,-1,-1,-1,-1,-1,-1,-1,-1,-1,-1,-1,-1,-1],"loss_changes":[2.1957228E0,9.448223E-1,1.8997068E0,1.8476058E0,1.9287317E0,2.375684E0,3.403224E0,0E0,1.6027768E0,1.2677081E0,0E0,1.7722427E0,2.7423162E0,8.872099E-1,1.3622135E0,1.060478E0,0E0,0E0,0E0,1.7485355E0,1.6885769E0,1.6000805E0,8.460809E-1,8.4461784E-1,1.4182531E0,1.5034763E0,9.0824115E-1,8.881085E-1,1.1842307E0,1.5937679E0,1.6899935E0,2.0441585E0,2.0956428E0,1.150066E0,1.2869372E0,0E0,0E0,8.6345196E-1,0E0,6.782146E-1,0E0,1.653472E0,1.7184908E0,1.1084362E0,9.2311215E-1,0E0,0E0,0E0,0E0,1.4315178E0,1.3433578E0,7.7978134E-1,7.177838E-1,1.4853307E0,1.5847663E0,1.5328188E0,1.9021271E0,7.1853817E-1,8.881079E-1,1.0237207E0,1.5836393E0,0E0,0E0,0E0,3.7660062E-1,1.1128786E0,9.284501E-1,1.6080081E0,1.5707948E0,0E0,7.2859555E-1,0E0,0E0,0E0,1.11426E0,1.8178355E0,1.5732985E0,8.706634E-1,0E0,0E0,0E0,1.5416709E0,1.3481668E0,1.2424924E0,1.169724E0,1.2388177E0,7.7775013E-1,1.4508183E0,0E0,0E0,8.66922E-1,1.0048366E0,0E0,5.6716216E-1,3.9058924E-1,0E0,1.4172575E0,4.0156642E-1,0E0,1.4576914E0,1.1038477E0,1.1196289E0,7.204137E-1,0E0,0E0,1.4548657E0,1.6924537E0,0E0,0E0,0E0,0E0,0E0,0E0,0E0,0E0,0E0,0E0,0E0,0E0,0E0,0E0,0E0,0E0,0E0,0E0,0E0,0E0,0E0,0E0,0E0,0E0,0E0,0E0,0E0,0E0,0E0,0E0,0E0,0E0,0E0,0E0,0E0,0E0,0E0,0E0,0E0,0E0,0E0,0E0,0E0,0E0,0E0,0E0,0E0,0E0],"parents":[2147483647,0,0,1,1,2,2,3,3,4,4,5,5,6,6,8,8,9,9,11,11,12,12,13,13,14,14,15,15,19,19,20,20,21,21,22,22,23,23,24,24,25,25,26,26,27,27,28,28,29,29,30,30,31,31,32,32,33,33,34,34,37,37,39,39,41,41,42,42,43,43,44,44,49,49,50,50,51,51,52,52,53,53,54,54,55,55,56,56,57,57,58,58,59,59,60,60,64,64,65,65,66,66,67,67,68,68,70,70,74,74,75,75,76,76,77,77,81,81,82,82,83,83,84,84,85,85,86,86,87,87,90,90,91,91,93,93,94,94,96,96,97,97,99,99,100,100,101,101,102,102,105,105,106,106],"right_children":[2,4,6,8,10,12,14,-1,16,18,-1,20,22,24,26,28,-1,-1,-1,30,32,34,36,38,40,42,44,46,48,50,52,54,56,58,60,-1,-1,62,-1,64,-1,66,68,70,72,-1,-1,-1,-1,74,76,78,80,82,84,86,88,90,92,94,96,-1,-1,-1,98,100,102,104,106,-1,108,-1,-1,-1,110,112,114,116,-1,-1,-1,118,120,122,124,126,128,130,-1,-1,132,134,-1,136,138,-1,140,142,-1,144,146,148,150,-1,-1,152,154,-1,-1,-1,-1,-1,-1,-1,-1,-1,-1,-1,-1,-1,-1,-1,-1,-1,-1,-1,-1,-1,-1,-1,-1,-1,-1,-1,-1,-1,-1,-1,-1,-1,-1,-1,-1,-1,-1,-1,-1,-1,-1,-1,-1,-1,-1,-1,-1],"split_conditions":[6.603053E-1,6.1752987E-1,2E0,-6.5256554E-1,-8E0,1.02E2,3.5E0,1.4150539E-2,7.600489E-1,-1.8E1,-1.5242144E-2,8.5227275E-1,1.2E1,4E0,1.12E2,1E1,1.4168727E-2,-1.4445629E-2,1.4199073E-2,1.9E1,1.1193181E0,3.5E0,1.1E1,1.88E2,1.112676E0,-7.2E1,-9E0,1.6E1,-1.04E2,-4.8E1,8.5E0,5E0,1.2619047E0,-2E0,4.492775E-1,1.47286095E-2,-1.3112518E-2,-1.2595978E0,-1.2603416E-2,-1.59E2,-1.4410531E-2,-9.6E1,-7E0,1.29E2,6.317588E-1,-1.5174542E-2,1.2692061E-2,-1.4394757E-2,1.4710685E-2,-6.9E1,2E0,1.0016816E0,5E0,9.816306E-2,3.3333332E1,1.0524905E0,1.7E1,-6.9E1,1.0320594E0,-4.8E1,5.5E0,-1.1948703E-2,1.510868E-2,-1.3061254E-2,8.273973E-1,6E0,-8.6342144E-1,-1.2E1,-5E0,1.42077925E-2,-1.8E1,1.5158642E-2,-1.32954875E-2,-1.4679171E-2,-2E0,-1E0,1.035324E0,-2E0,-1.2948452E-2,-1.4530755E-2,1.2497489E-2,-7.5E1,8.7768793E-1,8.908857E-1,-7.2E1,1.3E1,0E0,1.1812298E0,1.469499E-2,1.2769414E-2,3.3333332E1,5.3311837E-1,-1.4748742E-2,-7E1,1.9E1,-1.4113254E-2,1E0,-4.9E1,1.4851318E-2,-2.249362E-1,7E0,9.790941E-1,-1.3527788E0,-1.385606E-2,1.4886418E-2,2E0,1.2E1,1.2836712E-2,-1.43757E-2,-1.3688395E-2,9.239654E-3,2.3643223E-3,-4.0173507E-3,-7.899876E-3,1.4070863E-2,-1.2596299E-2,1.4992365E-2,-5.5914074E-3,9.4430776E-5,1.6016926E-3,9.506233E-3,-2.745377E-3,1.0604116E-2,1.9041979E-3,-1.1959324E-2,6.2021096E-3,-9.027421E-3,-1.4757639E-2,1.2818411E-2,7.373922E-4,-7.1971673E-3,-1.5144038E-2,1.275406E-2,-9.999075E-5,1.4446442E-2,-1.2136528E-2,1.40254265E-2,-1.3761177E-2,7.198782E-5,1.47709055E-2,-1.3860419E-2,-1.2573818E-2,1.233428E-2,7.2629405E-3,-1.4960711E-2,1.48713365E-2,4.631625E-4,-1.4313818E-2,1.3986762E-2,-1.2406057E-2,1.21316025E-2,-1.3196005E-2,1.3549989E-2,3.4167006E-4,-8.473014E-3],"split_indices":[10,10,3,16,5,6,15,0,16,5,0,9,15,3,6,15,0,0,0,5,10,12,5,6,9,6,1,5,1,1,15,7,10,7,17,0,0,17,0,6,0,6,7,6,16,0,0,0,0,6,8,17,1,17,14,16,5,1,16,1,15,0,0,0,9,15,17,1,7,0,5,0,0,0,3,3,17,3,0,0,0,14,16,16,6,15,3,9,0,0,14,16,0,1,5,0,3,1,0,16,15,9,16,0,0,8,15,0,0,0,0,0,0,0,0,0,0,0,0,0,0,0,0,0,0,0,0,0,0,0,0,0,0,0,0,0,0,0,0,0,0,0,0,0,0,0,0,0,0,0,0,0,0,0,0],"split_type":[0,0,0,0,0,0,0,0,0,0,0,0,0,0,0,0,0,0,0,0,0,0,0,0,0,0,0,0,0,0,0,0,0,0,0,0,0,0,0,0,0,0,0,0,0,0,0,0,0,0,0,0,0,0,0,0,0,0,0,0,0,0,0,0,0,0,0,0,0,0,0,0,0,0,0,0,0,0,0,0,0,0,0,0,0,0,0,0,0,0,0,0,0,0,0,0,0,0,0,0,0,0,0,0,0,0,0,0,0,0,0,0,0,0,0,0,0,0,0,0,0,0,0,0,0,0,0,0,0,0,0,0,0,0,0,0,0,0,0,0,0,0,0,0,0,0,0,0,0,0,0,0,0,0,0],"sum_hessian":[1.869E3,5.3E1,1.816E3,2.8E1,2.5E1,1.377E3,4.39E2,5E0,2.3E1,6E0,1.9E1,1.26E3,1.17E2,4.2E1,3.97E2,2E1,3E0,2E0,4E0,3.15E2,9.45E2,1.08E2,9E0,2.9E1,1.3E1,3.75E2,2.2E1,1.5E1,5E0,2.94E2,2.1E1,6.83E2,2.62E2,5E1,5.8E1,8E0,1E0,2.8E1,1E0,1E1,3E0,7.8E1,2.97E2,8E0,1.4E1,1.4E1,1E0,2E0,3E0,2.6E1,2.68E2,1.6E1,5E0,5.72E2,1.11E2,1.5E2,1.12E2,1.2E1,3.8E1,4.5E1,1.3E1,1E0,2.7E1,1E0,9E0,4.3E1,3.5E1,1.3E1,2.84E2,3E0,5E0,1.3E1,1E0,3E0,2.3E1,1.96E2,7.2E1,1.5E1,1E0,4E0,1E0,3.28E2,2.44E2,7.5E1,3.6E1,1.44E2,6E0,1.05E2,7E0,1E0,1.1E1,3.5E1,3E0,3E0,4.2E1,5E0,8E0,2E0,7E0,1.2E1,3.1E1,5E0,3E1,2E0,1.1E1,1.7E1,2.67E2,1E0,4E0,2E0,2.1E1,6E1,1.36E2,6.9E1,3E0,1E0,1.4E1,5.3E1,2.75E2,2.22E2,2.2E1,6.8E1,7E0,7E0,2.9E1,1.39E2,5E0,5E0,1E0,7.5E1,3E1,1E1,1E0,3E1,5E0,1E0,2E0,4E1,2E0,6E0,2E0,1E0,1E0,4E0,8E0,6E0,2.5E1,3E0,2E0,1E0,2.9E1,1.5E1,2E0,2.45E2,2.2E1],"tree_param":{"num_deleted":"0","num_feature":"18","num_nodes":"155","size_leaf_vector":"1"}},{"base_weights":[2.155528E-2,-8.8183984E-2,3.4080267E-2,-1.9376974E-1,-4.291855E-3,-3.251403E-1,3.7824713E-2,7.735776E-2,-3.0211633E-1,-3.9534503E-1,3.721536E-2,1.5242751E-1,-4.2823547E-1,1.9706503E-1,2.9892968E-2,-1.2018682E-1,3.0871713E-1,-3.295474E-1,1.3727037E-2,1.2415302E-2,-1.5033243E-2,1.1195054E-1,-1.19177744E-1,1.3532912E-2,-1.2345321E-2,-1.5251746E-2,1.2724771E-2,3.9048624E-1,7.499542E-2,2.2962622E-3,7.3352896E-2,-1.4920073E-2,2.0004307E-1,-1.2216543E-2,3.8633782E-1,-1.0609521E-1,-4.065942E-1,-9.1964476E-2,2.1622486E-1,-3.7093917E-1,1.1858322E-1,1.4919996E-2,2.1612237E-1,1.2755385E-1,-1.4694657E-2,-1.1995369E-1,1.7639354E-2,2.5926715E-1,6.228773E-2,-1.5402566E-1,1.4067966E-2,-1.2126296E-2,1.4689949E-2,-1.4902073E-2,9.0625785E-2,-4.279889E-1,1.2536606E-2,1.471E-2,-1.4984254E-2,-1.6762173E-1,3.1824458E-1,1.1925064E-2,-4.3027747E-1,-1.4817993E-2,3.2455334E-1,1.4727117E-2,-1.0903164E-1,-3.2636812E-1,2.0063423E-1,-1.7230359E-1,1.2172764E-1,1.1822343E-1,-1.2323009E-4,1.4102597E-3,3.9855978E-1,-4.3282874E-2,8.26255E-2,1.2201591E-2,-1.3525185E-2,-1.7216785E-1,1.4486938E-2,-4.4947353E-1,3.4707785E-3,8.974678E-2,-1.46098435E-2,3.6890018E-1,-1.3763095E-2,-1.5262749E-2,-8.703702E-3,1.4746343E-2,-1.3293943E-2,-1.4699368E-2,1.3487407E-2,-1.4870586E-2,1.2804843E-2,2.4114817E-1,-1.4739904E-2,-1.5093751E-2,-1.20341994E-1,1.4437092E-2,-8.7279715E-2,4.038967E-1,5.8248006E-2,-2.8583905E-2,8.1849076E-2,-1.6237837E-1,1.4411012E-2,4.3959025E-1,-1.1910733E-2,-5.2990727E-3,-1.5170438E-2,4.5249693E-2,1.8075427E-1,4.559273E-3,-1.4745556E-2,-1.5239093E-2,-9.588045E-3,-1.2005749E-2,1.2205981E-2,-1.3867324E-2,1.4003908E-2,1.2111872E-2,-1.21295415E-2,1.2105869E-2,-1.259831E-2,-2.5040223E-4,1.0284647E-2,3.7346923E-4,-7.930111E-3,-1.0839553E-2,8.744689E-3,-4.732534E-3,1.506984E-2,3.0322836E-3,-1.1464987E-2,-4.984736E-4,-9.61044E-3,1.9264846E-3,1.501484E-2,1.39580155E-2,-1.0622121E-2,1.4864663E-2,-2.0466998E-4,-3.59311E-3,6.558868E-3,2.5656878E-3,-1.3741557E-3,-6.267879E-4,7.092574E-3],"categories":[],"categories_nodes":[],"categories_segments":[],"categories_sizes":[],"default_left":[0,0,0,0,0,0,0,0,0,0,0,0,0,0,0,0,0,0,0,0,0,0,0,0,0,0,0,0,0,0,0,0,0,0,0,0,0,0,0,0,0,0,0,0,0,0,0,0,0,0,0,0,0,0,0,0,0,0,0,0,0,0,0,0,0,0,0,0,0,0,0,0,0,0,0,0,0,0,0,0,0,0,0,0,0,0,0,0,0,0,0,0,0,0,0,0,0,0,0,0,0,0,0,0,0,0,0,0,0,0,0,0,0,0,0,0,0,0,0,0,0,0,0,0,0,0,0,0,0,0,0,0,0,0,0,0,0,0,0,0,0,0,0,0,0,0,0,0,0],"id":4,"left_children":[1,3,5,7,9,11,13,15,17,19,21,23,25,27,29,31,33,35,-1,-1,-1,37,39,-1,-1,-1,-1,41,43,45,47,-1,49,-1,51,53,55,57,59,61,63,-1,65,67,-1,69,71,73,75,77,-1,-1,-1,-1,79,81,-1,-1,-1,83,85,-1,87,-1,89,-1,91,93,95,97,99,101,103,105,107,109,111,-1,-1,113,-1,115,117,119,-1,121,-1,-1,123,-1,-1,-1,-1,-1,-1,125,-1,-1,127,-1,129,131,133,135,137,139,-1,141,-1,143,-1,145,147,-1,-1,-1,-1,-1,-1,-1,-1,-1,-1,-1,-1,-1,-1,-1,-1,-1,-1,-1,-1,-1,-1,-1,-1,-1,-1,-1,-1,-1,-1,-1,-1,-1,-1,-1,-1],"loss_changes":[2.551947E0,1.6846225E0,2.2437043E0,2.4787128E0,1.7271409E0,8.6114645E-1,2.0817447E0,1.1143541E0,1.271543E0,8.300295E-1,1.1273167E0,5.5566406E-1,8.903725E-1,1.8403344E0,1.8843778E0,1.576371E0,6.4874494E-1,9.929619E-1,0E0,0E0,0E0,1.3907865E0,1.8775337E0,0E0,0E0,0E0,0E0,4.9103832E-1,1.4205508E0,1.8033537E0,1.2518296E0,0E0,6.7885166E-1,0E0,7.922175E-1,1.1502146E0,7.9182863E-1,5.116239E0,1.7033691E0,7.2209215E-1,2.0470135E0,0E0,9.789757E-1,1.4803183E0,0E0,1.3608476E0,1.5261935E0,1.2285306E0,1.2379267E0,5.490304E-1,0E0,0E0,0E0,0E0,1.0453298E0,3.917203E-1,0E0,0E0,0E0,7.44391E-1,1.3664215E0,0E0,4.116044E-1,0E0,1.5063916E0,0E0,1.1100311E0,7.8309894E-1,1.0812306E0,1.4601743E0,1.4157686E0,2.19161E0,1.6947178E0,9.5591694E-1,7.542131E-1,1.6026516E0,1.7704647E0,0E0,0E0,6.33879E-1,0E0,2.3421383E-1,3.7942734E-1,1.0860306E0,0E0,7.0407104E-1,0E0,0E0,3.950091E-1,0E0,0E0,0E0,0E0,0E0,0E0,8.602283E-1,0E0,0E0,1.4050015E0,0E0,1.2392623E0,1.1198826E0,1.8905516E0,1.890983E0,1.4369763E0,1.0878801E0,0E0,4.4143534E-1,0E0,2.1316004E0,0E0,1.2218914E0,1.3737817E0,0E0,0E0,0E0,0E0,0E0,0E0,0E0,0E0,0E0,0E0,0E0,0E0,0E0,0E0,0E0,0E0,0E0,0E0,0E0,0E0,0E0,0E0,0E0,0E0,0E0,0E0,0E0,0E0,0E0,0E0,0E0,0E0,0E0,0E0,0E0,0E0],"parents":[2147483647,0,0,1,1,2,2,3,3,4,4,5,5,6,6,7,7,8,8,9,9,10,10,11,11,12,12,13,13,14,14,15,15,16,16,17,17,21,21,22,22,27,27,28,28,29,29,30,30,32,32,34,34,35,35,36,36,37,37,38,38,39,39,40,40,42,42,43,43,45,45,46,46,47,47,48,48,49,49,54,54,55,55,59,59,60,60,62,62,64,64,66,66,67,67,68,68,69,69,70,70,71,71,72,72,73,73,74,74,75,75,76,76,79,79,81,81,82,82,83,83,85,85,88,88,95,95,98,98,100,100,101,101,102,102,103,103,104,104,105,105,107,107,109,109,111,111,112,112],"right_children":[2,4,6,8,10,12,14,16,18,20,22,24,26,28,30,32,34,36,-1,-1,-1,38,40,-1,-1,-1,-1,42,44,46,48,-1,50,-1,52,54,56,58,60,62,64,-1,66,68,-1,70,72,74,76,78,-1,-1,-1,-1,80,82,-1,-1,-1,84,86,-1,88,-1,90,-1,92,94,96,98,100,102,104,106,108,110,112,-1,-1,114,-1,116,118,120,-1,122,-1,-1,124,-1,-1,-1,-1,-1,-1,126,-1,-1,128,-1,130,132,134,136,138,140,-1,142,-1,144,-1,146,148,-1,-1,-1,-1,-1,-1,-1,-1,-1,-1,-1,-1,-1,-1,-1,-1,-1,-1,-1,-1,-1,-1,-1,-1,-1,-1,-1,-1,-1,-1,-1,-1,-1,-1,-1,-1],"split_conditions":[-8.7E1,-1E0,-1.264239E0,-3.435918E-1,-9.8661727E-1,-1.7E1,-1.0440588E0,-6.047944E-1,2.2E1,-1.71E2,3.5293576E-1,-8E0,2.2E1,-2.1E1,1E0,0E0,-8.7E1,5.5E0,1.3727037E-2,1.2415302E-2,-1.5033243E-2,-5E1,1E0,1.3532912E-2,-1.2345321E-2,-1.5251746E-2,1.2724771E-2,9E0,8.922059E-1,-6.7104524E-1,-6E0,-1.4920073E-2,1E0,-1.2216543E-2,-1.84E2,3.5E0,5E0,-6E0,-5.7195795E-1,-1.59E2,-2E0,1.4919996E-2,4E0,-1.7E1,-1.4694657E-2,6.246263E-1,-7.6E1,0E0,-6.3E1,-5.8E1,1.4067966E-2,-1.2126296E-2,1.4689949E-2,-1.4902073E-2,1E0,1.2139531E0,1.2536606E-2,1.471E-2,-1.4984254E-2,-1E0,1.06E2,1.1925064E-2,3E0,-1.4817993E-2,5E0,1.4727117E-2,4.1E1,3.9E1,1.48E2,-5E0,0E0,-3.0682594E-1,2E0,3.4E1,1.12E2,1.03E2,4.1845894E-1,1.2201591E-2,-1.3525185E-2,-1.4E1,1.4486938E-2,9.5E0,-1.52E2,-2.2E1,-1.46098435E-2,1.2E1,-1.3763095E-2,-1.5262749E-2,-4.3E1,1.4746343E-2,-1.3293943E-2,-1.4699368E-2,1.3487407E-2,-1.4870586E-2,1.2804843E-2,-4E1,-1.4739904E-2,-1.5093751E-2,-1.8E1,1.4437092E-2,1E0,-6.4310384E-1,6E0,1.0950533E0,6.7E1,-8E0,1.4411012E-2,1E2,-1.1910733E-2,3E0,-1.5170438E-2,7E0,-3.8E1,4.559273E-3,-1.4745556E-2,-1.5239093E-2,-9.588045E-3,-1.2005749E-2,1.2205981E-2,-1.3867324E-2,1.4003908E-2,1.2111872E-2,-1.21295415E-2,1.2105869E-2,-1.259831E-2,-2.5040223E-4,1.0284647E-2,3.7346923E-4,-7.930111E-3,-1.0839553E-2,8.744689E-3,-4.732534E-3,1.506984E-2,3.0322836E-3,-1.1464987E-2,-4.984736E-4,-9.61044E-3,1.9264846E-3,1.501484E-2,1.39580155E-2,-1.0622121E-2,1.4864663E-2,-2.0466998E-4,-3.59311E-3,6.558868E-3,2.5656878E-3,-1.3741557E-3,-6.267879E-4,7.092574E-3],"split_indices":[0,2,16,16,16,1,16,16,5,0,16,5,5,6,3,13,6,15,0,0,0,14,7,0,0,0,0,5,17,16,7,0,8,0,0,15,13,1,17,6,3,0,1,6,0,17,6,13,6,1,0,0,0,0,7,16,0,0,0,13,6,0,3,0,2,0,1,0,6,2,7,16,8,6,6,0,16,0,0,1,0,15,0,1,0,5,0,0,1,0,0,0,0,0,0,0,0,0,6,0,2,16,7,16,1,2,0,14,0,3,0,5,1,0,0,0,0,0,0,0,0,0,0,0,0,0,0,0,0,0,0,0,0,0,0,0,0,0,0,0,0,0,0,0,0,0,0,0,0],"split_type":[0,0,0,0,0,0,0,0,0,0,0,0,0,0,0,0,0,0,0,0,0,0,0,0,0,0,0,0,0,0,0,0,0,0,0,0,0,0,0,0,0,0,0,0,0,0,0,0,0,0,0,0,0,0,0,0,0,0,0,0,0,0,0,0,0,0,0,0,0,0,0,0,0,0,0,0,0,0,0,0,0,0,0,0,0,0,0,0,0,0,0,0,0,0,0,0,0,0,0,0,0,0,0,0,0,0,0,0,0,0,0,0,0,0,0,0,0,0,0,0,0,0,0,0,0,0,0,0,0,0,0,0,0,0,0,0,0,0,0,0,0,0,0,0,0,0,0,0,0],"sum_hessian":[1.856E3,1.9E2,1.666E3,8.4E1,1.06E2,1.7E1,1.649E3,2.4E1,6E1,1E1,9.6E1,3E0,1.4E1,7.8E1,1.571E3,1.3E1,1.1E1,5.8E1,2E0,1E0,9E0,6.5E1,3.1E1,2E0,1E0,1.3E1,1E0,3E1,4.8E1,9.61E2,6.1E2,6E0,7E0,1E0,1E1,1.5E1,4.3E1,2.2E1,4.3E1,1.5E1,1.6E1,1.9E1,1.1E1,4.4E1,4E0,1.07E2,8.54E2,3.4E1,5.76E2,3E0,4E0,1E0,9E0,5E0,1E1,4.2E1,1E0,9E0,1.3E1,9E0,3.4E1,1E0,1.4E1,4E0,1.2E1,6E0,5E0,6E0,3.8E1,8.8E1,1.9E1,1.28E2,7.26E2,1.2E1,2.2E1,9.3E1,4.83E2,1E0,2E0,6E0,4E0,4E1,2E0,5E0,4E0,3.2E1,2E0,1.2E1,2E0,1E1,2E0,3E0,2E0,5E0,1E0,3.6E1,2E0,1.2E1,7.6E1,7E0,1.2E1,2.2E1,1.06E2,5.39E2,1.87E2,9E0,3E0,2.1E1,1E0,8.6E1,7E0,3.5E2,1.33E2,3E0,3E0,2.9E1,1.1E1,1E0,1E0,2E0,3E0,3.1E1,1E0,1E0,1E0,1E1,2.6E1,3.9E1,3.7E1,7E0,5E0,3E0,1.9E1,9.7E1,9E0,5.17E2,2.2E1,1.79E2,8E0,2E0,7E0,1.9E1,2E0,5.7E1,2.9E1,2.45E2,1.05E2,2.7E1,1.06E2],"tree_param":{"num_deleted":"0","num_feature":"18","num_nodes":"149","size_leaf_vector":"1"}},{"base_weights":[1.4580957E-2,6.6653322E-3,1.739856E-1,-2.6750816E-3,1.2149165E-1,3.3961904E-1,3.873577E-3,3.2535043E-2,-2.958691E-2,-1.6742852E-1,1.5695351E-1,-1.3077976E-2,3.7637195E-1,1.3228822E-1,-2.066501E-1,8.961275E-2,-1.2870752E-2,-1.1916879E-1,-1.3032029E-2,1.4136129E-2,-4.0082535E-1,2.1290909E-1,-6.2328536E-2,2.2220914E-1,4.5392865E-1,-1.4116131E-2,2.0682865E-1,-1.5140546E-2,-4.2920098E-2,5.2835055E-2,1.9516797E-1,3.3858456E-3,-3.4380224E-1,-1.5335158E-1,2.1022983E-1,1.04236275E-1,-3.599384E-2,-1.4931881E-2,1.2441197E-2,1.5301648E-1,4.424548E-1,1.4089724E-2,-1.3736288E-1,3.9132273E-1,-2.3910955E-1,1.4892156E-2,2.3293835E-1,3.24419E-1,-1.6387597E-1,-1.3783134E-2,1.176211E-1,1.6663983E-1,-5.6304927E-3,1.304935E-1,1.4882897E-2,2.1280104E-1,-1.5393642E-2,-6.974235E-3,-1.5186225E-2,-1.730059E-1,1.4414718E-2,-2.3855639E-1,3.909853E-1,-2.1129923E-1,1.7398742E-1,-2.9551262E-1,-2.5996482E-2,-5.139498E-2,2.7370247E-1,1.5016836E-2,-1.2432211E-2,-3.937195E-1,7.934863E-2,1.4591866E-2,1.4593217E-1,-1.4224335E-2,1.2289571E-2,-1.2738351E-2,1.4146052E-2,-2.4716586E-1,1.4620922E-2,1.3746471E-2,-1.4609494E-2,-1.39873605E-2,3.1835145E-1,1.9248775E-1,-1.4736932E-2,1.7944695E-1,-7.603217E-2,7.003547E-2,1.4627434E-2,-2.734731E-1,3.042788E-1,-1.9075881E-3,-3.0070972E-1,-1.4168642E-2,1.3753691E-2,-2.4705698E-1,-7.1955115E-2,-1.4280857E-2,1.2498334E-2,-1.2357421E-2,1.4877857E-2,3.830111E-2,-4.197662E-1,1.067754E-1,4.0902412E-1,6.824541E-2,-4.3614247E-1,7.3350864E-5,-1.0588447E-1,-2.1211712E-1,3.650962E-1,-1.4155686E-2,3.2363904E-1,1.248519E-2,-1.4987327E-2,-1.6326402E-1,3.193151E-1,1.3452796E-2,-1.2725811E-2,-1.4526363E-2,1.2233758E-2,-1.2475549E-2,1.4501922E-2,-7.7681495E-3,6.6336794E-3,8.590744E-3,-1.06898695E-2,1.4718378E-2,-2.960031E-3,7.605436E-3,-9.68248E-5,1.2929065E-2,-1.4066514E-2,-3.0583018E-3,1.2116212E-2,-5.633905E-4,5.8111534E-3,-1.2590783E-2,5.379576E-3,-1.238384E-2,-3.6021685E-3,1.4546718E-3,-1.3024488E-2,-1.4577109E-2,1.0333903E-2,-1.5117335E-2,1.2412604E-2,-8.257009E-4,7.6367394E-3,1.5066069E-2,2.5640712E-3,-7.403659E-3,1.4399074E-2,1.6933559E-4,-1.50048295E-2,3.946077E-4,-9.20376E-3,-4.3002395E-3,9.80271E-3,-3.1929342E-6,-1.2267941E-2,1.4845694E-2,-1.2706105E-2,1.2037846E-2,-2.0398244E-3,-1.4487288E-2,1.356626E-2,1.4525751E-2,-1.2426937E-2],"categories":[],"categories_nodes":[],"categories_segments":[],"categories_sizes":[],"default_left":[0,0,0,0,0,0,0,0,0,0,0,0,0,0,0,0,0,0,0,0,0,0,0,0,0,0,0,0,0,0,0,0,0,0,0,0,0,0,0,0,0,0,0,0,0,0,0,0,0,0,0,0,0,0,0,0,0,0,0,0,0,0,0,0,0,0,0,0,0,0,0,0,0,0,0,0,0,0,0,0,0,0,0,0,0,0,0,0,0,0,0,0,0,0,0,0,0,0,0,0,0,0,0,0,0,0,0,0,0,0,0,0,0,0,0,0,0,0,0,0,0,0,0,0,0,0,0,0,0,0,0,0,0,0,0,0,0,0,0,0,0,0,0,0,0,0,0,0,0,0,0,0,0,0,0,0,0,0,0,0,0,0,0,0,0,0,0,0,0,0,0],"id":5,"left_children":[1,3,5,7,9,11,13,15,17,19,21,-1,23,25,27,29,31,33,35,-1,37,39,41,43,45,-1,47,-1,49,51,53,55,57,59,61,63,65,-1,-1,67,69,-1,71,73,75,-1,77,79,81,-1,83,85,87,89,-1,91,93,95,-1,97,-1,99,101,103,105,107,109,111,113,-1,-1,115,117,-1,119,-1,-1,-1,-1,121,-1,-1,-1,-1,123,125,-1,127,129,131,-1,133,135,137,139,-1,-1,141,143,-1,-1,-1,-1,145,147,149,151,153,155,157,159,161,163,-1,165,-1,-1,167,169,-1,-1,-1,-1,-1,-1,-1,-1,-1,-1,-1,-1,-1,-1,-1,-1,-1,-1,-1,-1,-1,-1,-1,-1,-1,-1,-1,-1,-1,-1,-1,-1,-1,-1,-1,-1,-1,-1,-1,-1,-1,-1,-1,-1,-1,-1,-1,-1,-1,-1,-1,-1],"loss_changes":[2.4327018E0,1.970553E0,2.5695996E0,1.6103202E0,1.4215786E0,1.33704E0,1.2279602E0,1.9082682E0,1.4280972E0,2.2745633E0,1.514626E0,0E0,5.072093E-1,1.2689745E0,8.083759E-1,1.2641423E0,2.207189E0,1.698098E0,2.1904967E0,0E0,8.3420444E-1,1.3358145E0,1.0027918E0,1.2063532E0,1.8969107E-1,0E0,1.1101712E0,0E0,7.452473E-1,1.6118231E0,1.5744393E0,1.5392557E0,9.881959E-1,1.6896772E0,1.1724027E0,2.9395428E0,1.7631094E0,0E0,0E0,1.9324319E0,8.770213E-1,0E0,1.2405534E0,2.2148538E-1,6.495385E-1,0E0,6.6871786E-1,1.713131E0,1.2411134E0,0E0,9.783389E-1,1.3976936E0,2.0903451E0,1.4484881E0,0E0,1.4503279E0,1.3819675E0,1.3385359E0,0E0,9.854994E-1,0E0,6.628821E-1,8.1738985E-1,1.2632233E0,1.7159109E0,1.2959924E0,1.3646128E0,1.9715673E0,1.841727E0,0E0,0E0,8.3179915E-1,7.218743E-1,0E0,5.6912327E-1,0E0,0E0,0E0,0E0,6.6108894E-1,0E0,0E0,0E0,0E0,7.4407476E-1,8.768413E-1,0E0,2.394871E0,1.3553103E0,7.747516E-1,0E0,7.1776974E-1,1.0202305E0,1.0889137E0,8.734404E-1,0E0,0E0,1.5456614E0,2.3828237E0,0E0,0E0,0E0,0E0,1.7640183E0,8.563659E-1,1.6313536E0,6.5010357E-1,9.251747E-1,4.396999E-1,1.9100916E0,2.3987331E0,8.5023725E-1,8.142774E-1,0E0,1.269207E0,0E0,0E0,1.2147079E0,7.425461E-1,0E0,0E0,0E0,0E0,0E0,0E0,0E0,0E0,0E0,0E0,0E0,0E0,0E0,0E0,0E0,0E0,0E0,0E0,0E0,0E0,0E0,0E0,0E0,0E0,0E0,0E0,0E0,0E0,0E0,0E0,0E0,0E0,0E0,0E0,0E0,0E0,0E0,0E0,0E0,0E0,0E0,0E0,0E0,0E0,0E0,0E0,0E0,0E0,0E0,0E0,0E0,0E0],"parents":[2147483647,0,0,1,1,2,2,3,3,4,4,5,5,6,6,7,7,8,8,9,9,10,10,12,12,13,13,14,14,15,15,16,16,17,17,18,18,20,20,21,21,22,22,23,23,24,24,26,26,28,28,29,29,30,30,31,31,32,32,33,33,34,34,35,35,36,36,39,39,40,40,42,42,43,43,44,44,46,46,47,47,48,48,50,50,51,51,52,52,53,53,55,55,56,56,57,57,59,59,61,61,62,62,63,63,64,64,65,65,66,66,67,67,68,68,71,71,72,72,74,74,79,79,84,84,85,85,87,87,88,88,89,89,91,91,92,92,93,93,94,94,97,97,98,98,103,103,104,104,105,105,106,106,107,107,108,108,109,109,110,110,111,111,112,112,114,114,117,117,118,118],"right_children":[2,4,6,8,10,12,14,16,18,20,22,-1,24,26,28,30,32,34,36,-1,38,40,42,44,46,-1,48,-1,50,52,54,56,58,60,62,64,66,-1,-1,68,70,-1,72,74,76,-1,78,80,82,-1,84,86,88,90,-1,92,94,96,-1,98,-1,100,102,104,106,108,110,112,114,-1,-1,116,118,-1,120,-1,-1,-1,-1,122,-1,-1,-1,-1,124,126,-1,128,130,132,-1,134,136,138,140,-1,-1,142,144,-1,-1,-1,-1,146,148,150,152,154,156,158,160,162,164,-1,166,-1,-1,168,170,-1,-1,-1,-1,-1,-1,-1,-1,-1,-1,-1,-1,-1,-1,-1,-1,-1,-1,-1,-1,-1,-1,-1,-1,-1,-1,-1,-1,-1,-1,-1,-1,-1,-1,-1,-1,-1,-1,-1,-1,-1,-1,-1,-1,-1,-1,-1,-1,-1,-1,-1,-1],"split_conditions":[1.19E2,9E0,0E0,-1E0,-8.2205784E-1,-1.7E1,1.1086956E0,3.5E0,-6.7104524E-1,-3.1E1,1.2E1,-1.3077976E-2,-6E0,2E0,-2.7132273E-1,3.6759275E-1,9.7E1,1.7E1,-3.672361E-1,1.4136129E-2,5E1,2E0,-5.454276E-1,-8E0,1.7E2,-1.4116131E-2,2.90413E-1,-1.5140546E-2,-7.5E1,-3E0,9.5E0,-9.234348E-1,-3.9E1,1.0956218E0,-1.2018539E0,5E0,6.410891E-1,-1.4931881E-2,1.2441197E-2,-2.4E1,1.03E2,1.4089724E-2,1.18521996E-1,5.8448154E-1,1.7E2,1.4892156E-2,1.84E2,-8.3544105E-1,3E0,-1.3783134E-2,3.5E0,3.1434837E-1,-2.6E1,5.2E1,1.4882897E-2,-4.1E1,1.445946E0,6.903766E-1,-1.5186225E-2,8.5E0,1.4414718E-2,-5E0,0E0,-5.1466185E-1,-4.3277285E-1,-1.61E2,3.3333332E1,9E0,-1.11E2,1.5016836E-2,-1.2432211E-2,8.3838385E-1,-5E0,1.4591866E-2,-3.2E1,-1.4224335E-2,1.2289571E-2,-1.2738351E-2,1.4146052E-2,4E0,1.4620922E-2,1.3746471E-2,-1.4609494E-2,-1.39873605E-2,2.5E1,-1.2018539E0,-1.4736932E-2,9.5E0,5.6725144E-1,-8E0,1.4627434E-2,-7.4E1,-6.6E1,7.861654E-1,7.7362627E-1,-1.4168642E-2,1.3753691E-2,0E0,2E0,-1.4280857E-2,1.2498334E-2,-1.2357421E-2,1.4877857E-2,8.064516E-1,9.8E1,-1E1,6.2E1,6E0,-3.4E1,4E0,8.8E1,0E0,-2.9E1,-1.4155686E-2,4.5E0,1.248519E-2,-1.4987327E-2,1E0,2.3E1,1.3452796E-2,-1.2725811E-2,-1.4526363E-2,1.2233758E-2,-1.2475549E-2,1.4501922E-2,-7.7681495E-3,6.6336794E-3,8.590744E-3,-1.06898695E-2,1.4718378E-2,-2.960031E-3,7.605436E-3,-9.68248E-5,1.2929065E-2,-1.4066514E-2,-3.0583018E-3,1.2116212E-2,-5.633905E-4,5.8111534E-3,-1.2590783E-2,5.379576E-3,-1.238384E-2,-3.6021685E-3,1.4546718E-3,-1.3024488E-2,-1.4577109E-2,1.0333903E-2,-1.5117335E-2,1.2412604E-2,-8.257009E-4,7.6367394E-3,1.5066069E-2,2.5640712E-3,-7.403659E-3,1.4399074E-2,1.6933559E-4,-1.50048295E-2,3.946077E-4,-9.20376E-3,-4.3002395E-3,9.80271E-3,-3.1929342E-6,-1.2267941E-2,1.4845694E-2,-1.2706105E-2,1.2037846E-2,-2.0398244E-3,-1.4487288E-2,1.356626E-2,1.4525751E-2,-1.2426937E-2],"split_indices":[0,2,2,2,16,5,10,12,16,1,2,0,2,12,17,16,0,5,16,0,14,3,16,2,0,0,17,0,14,5,15,16,1,17,16,15,9,0,0,1,0,0,16,16,0,0,0,17,2,0,15,16,1,0,0,1,10,10,0,15,0,0,2,16,16,0,14,5,0,0,0,10,1,0,1,0,0,0,0,2,0,0,0,0,1,16,0,15,9,2,0,0,0,17,16,0,0,3,3,0,0,0,0,9,0,0,0,1,1,4,0,14,1,0,12,0,0,3,1,0,0,0,0,0,0,0,0,0,0,0,0,0,0,0,0,0,0,0,0,0,0,0,0,0,0,0,0,0,0,0,0,0,0,0,0,0,0,0,0,0,0,0,0,0,0,0,0,0,0,0,0],"split_type":[0,0,0,0,0,0,0,0,0,0,0,0,0,0,0,0,0,0,0,0,0,0,0,0,0,0,0,0,0,0,0,0,0,0,0,0,0,0,0,0,0,0,0,0,0,0,0,0,0,0,0,0,0,0,0,0,0,0,0,0,0,0,0,0,0,0,0,0,0,0,0,0,0,0,0,0,0,0,0,0,0,0,0,0,0,0,0,0,0,0,0,0,0,0,0,0,0,0,0,0,0,0,0,0,0,0,0,0,0,0,0,0,0,0,0,0,0,0,0,0,0,0,0,0,0,0,0,0,0,0,0,0,0,0,0,0,0,0,0,0,0,0,0,0,0,0,0,0,0,0,0,0,0,0,0,0,0,0,0,0,0,0,0,0,0,0,0,0,0,0,0],"sum_hessian":[1.928E3,1.837E3,9.1E1,1.699E3,1.38E2,4.6E1,4.5E1,7.36E2,9.63E2,1.5E1,1.23E2,2E0,4.4E1,2.8E1,1.7E1,3.26E2,4.1E2,1.5E2,8.13E2,4E0,1.1E1,9.8E1,2.5E1,1.5E1,2.9E1,3E0,2.5E1,6E0,1.1E1,2.42E2,8.4E1,3.91E2,1.9E1,1.36E2,1.4E1,1.33E2,6.8E2,1E1,1E0,7.8E1,2E1,3E0,2.2E1,1.1E1,4E0,2.5E1,4E0,1.9E1,6E0,3E0,8E0,8.2E1,1.6E2,6.9E1,1.5E1,3.2E1,3.59E2,6E0,1.3E1,1.32E2,4E0,4E0,1E1,2.4E1,1.09E2,2.5E1,6.55E2,2.9E1,4.9E1,1.9E1,1E0,1E1,1.2E1,8E0,3E0,3E0,1E0,1E0,3E0,4E0,1.5E1,2E0,4E0,2E0,6E0,7.9E1,3E0,4.4E1,1.16E2,5.9E1,1E1,5E0,2.7E1,3.43E2,1.6E1,3E0,3E0,7.6E1,5.6E1,3E0,1E0,1E0,9E0,1.1E1,1.3E1,8.5E1,2.4E1,7E0,1.8E1,4.94E2,1.61E2,2.1E1,8E0,3E0,4.6E1,1E0,9E0,6E0,6E0,2E0,1E0,3E0,1E0,1E0,5E0,4E0,7.5E1,3.7E1,7E0,4E0,1.12E2,1.7E1,4.2E1,1E0,4E0,5E0,2.2E1,3.16E2,2.7E1,1.3E1,3E0,3.4E1,4.2E1,4.2E1,1.4E1,4E0,7E0,1.2E1,1E0,4.4E1,4.1E1,1.9E1,5E0,4E0,3E0,2E0,1.6E1,4.74E2,2E1,1.49E2,1.2E1,1E1,1.1E1,7E0,1E0,3.9E1,7E0,4E0,2E0,5E0,1E0],"tree_param":{"num_deleted":"0","num_feature":"18","num_nodes":"171","size_leaf_vector":"1"}},{"base_weights":[4.960284E-4,-1.08154535E-1,6.8524177E-3,-2.544515E-1,2.5063874E-2,6.2132634E-2,-1.0321677E-2,-1.0163571E-1,-1.5043003E-2,-1.4353894E-2,7.73187E-2,-2.651574E-1,8.308394E-2,-7.591126E-2,1.9955106E-2,2.2515033E-1,-2.9123452E-1,1.626772E-1,-2.1505342E-1,-1.109537E-2,-1.5158419E-2,1.2273814E-1,-2.1591906E-2,-2.1930046E-1,-4.3565642E-2,5.445836E-2,-2.8083442E-2,1.5081795E-2,-1.0343321E-1,-4.3405357E-1,1.3726712E-2,2.1786706E-1,-1.38579905E-2,-3.7540027E-1,1.4476826E-2,2.0531912E-1,-3.1018245E-1,1.3118565E-1,-1.3684683E-2,-4.647345E-2,1.443556E-2,2.74001E-1,-2.842849E-1,2.8950363E-2,-1.0776646E-1,-2.2865308E-2,1.0543138E-1,1.2499232E-2,-1.3754109E-1,-1.4677232E-2,1.3858782E-2,-1.3612142E-1,-1.52739845E-2,2.949274E-1,-1.5192477E-1,-1.4647672E-2,1.2007509E-2,-1.5329671E-1,1.4327246E-2,1.141242E-2,-1.5019592E-2,1.1944344E-1,1.4530259E-2,3.2635534E-3,-3.5804543E-1,1.4724634E-2,-1.4539076E-1,-4.1553846E-1,-2.5884917E-3,8.914546E-2,-1.1934617E-1,-1.259204E-1,3.4151772E-1,1.5123098E-1,-7.095139E-2,8.3191976E-2,3.4670436E-1,1.0627933E-1,-4.8787817E-2,-1.7010607E-1,1.4922679E-2,-1.3313928E-2,1.3267899E-2,1.5070648E-2,1.5086856E-1,1.4847271E-1,-1.352873E-2,1.2958824E-2,-1.3907453E-2,2.6285815E-1,8.9267075E-2,1.4748404E-2,-2.0412937E-2,-1.5302465E-2,1.6263093E-1,1.2635184E-2,-1.3379127E-2,-1.3020527E-1,-4.7304958E-1,-2.7137244E-1,1.8483129E-1,4.0714562E-1,4.8259214E-2,-2.0243932E-1,3.474919E-1,-2.4390195E-1,-3.4750864E-2,-1.3147836E-2,1.4687647E-2,-3.2046014E-1,2.2329697E-1,1.6885015E-1,-1.0011956E-1,5.730436E-2,3.193993E-1,3.781228E-1,-1.2038911E-2,2.3724052E-1,3.4854144E-2,-1.743854E-1,3.3097982E-2,-4.1789567E-1,-8.9863196E-2,-3.605897E-3,1.1835233E-2,1.2918897E-2,-1.1544734E-2,-9.358812E-5,1.0809292E-2,-1.4802796E-2,3.0606473E-3,1.4701337E-2,-1.2211228E-3,-1.245969E-2,1.404868E-2,-1.4882152E-2,1.3969161E-2,-1.52251115E-2,-7.378369E-3,1.3509644E-2,-1.4741806E-2,-1.3368507E-2,9.296384E-3,1.4727016E-2,-1.268685E-2,-4.8233904E-3,3.950928E-3,6.2038354E-3,-8.841836E-3,-1.2497339E-2,1.477296E-2,-9.844517E-3,1.6508667E-3,-4.4268807E-3,1.9264251E-3,-1.4863465E-2,1.370113E-2,-9.742081E-3,9.793963E-3,-1.111859E-3,1.4769192E-2,-1.4520737E-2,-2.475757E-3,-4.0512928E-4,4.733003E-3,1.1486508E-2,-4.916012E-3,-5.1669733E-5,1.3654229E-2,8.951921E-3,-7.3051923E-3,-1.4528128E-2,2.025098E-3,-6.4477082E-3,8.200908E-3,-1.0071977E-2,2.3573304E-3,-8.270058E-3,-1.5330461E-2,1.1535563E-2,-4.726036E-3],"categories":[],"categories_nodes":[],"categories_segments":[],"categories_sizes":[],"default_left":[0,0,0,0,0,0,0,0,0,0,0,0,0,0,0,0,0,0,0,0,0,0,0,0,0,0,0,0,0,0,0,0,0,0,0,0,0,0,0,0,0,0,0,0,0,0,0,0,0,0,0,0,0,0,0,0,0,0,0,0,0,0,0,0,0,0,0,0,0,0,0,0,0,0,0,0,0,0,0,0,0,0,0,0,0,0,0,0,0,0,0,0,0,0,0,0,0,0,0,0,0,0,0,0,0,0,0,0,0,0,0,0,0,0,0,0,0,0,0,0,0,0,0,0,0,0,0,0,0,0,0,0,0,0,0,0,0,0,0,0,0,0,0,0,0,0,0,0,0,0,0,0,0,0,0,0,0,0,0,0,0,0,0,0,0,0,0,0,0,0,0,0,0,0,0,0,0,0,0,0,0],"id":6,"left_children":[1,3,5,7,9,11,13,15,-1,-1,17,19,21,23,25,27,29,31,33,35,-1,37,39,41,43,45,47,-1,49,51,-1,53,-1,55,-1,57,59,61,-1,63,-1,65,67,69,71,73,75,77,79,-1,-1,81,-1,83,85,-1,-1,87,-1,-1,-1,89,-1,91,93,-1,95,97,99,101,103,105,107,109,111,113,115,117,119,121,-1,-1,-1,-1,123,125,-1,-1,-1,127,129,-1,131,-1,133,-1,-1,135,137,139,141,143,145,147,149,151,153,-1,-1,155,157,159,161,163,165,167,-1,169,171,173,175,177,179,-1,-1,-1,-1,-1,-1,-1,-1,-1,-1,-1,-1,-1,-1,-1,-1,-1,-1,-1,-1,-1,-1,-1,-1,-1,-1,-1,-1,-1,-1,-1,-1,-1,-1,-1,-1,-1,-1,-1,-1,-1,-1,-1,-1,-1,-1,-1,-1,-1,-1,-1,-1,-1,-1,-1,-1,-1,-1],"loss_changes":[1.2896729E0,2.0129113E0,1.6750675E0,1.7755158E0,1.4083263E0,2.872319E0,2.6736934E0,1.8855844E0,0E0,0E0,1.2354585E0,1.4756353E0,1.6327355E0,1.9700549E0,1.5272218E0,9.9834585E-1,2.0716724E0,1.3195174E0,1.2749753E0,8.0375427E-1,0E0,1.3862696E0,1.3337582E0,2.523565E0,1.6171438E0,2.1139584E0,1.7115297E0,0E0,1.1380049E0,3.0174398E-1,0E0,1.0128225E0,0E0,7.7279854E-1,0E0,6.9586617E-1,6.8318135E-1,1.1238685E0,0E0,1.5997508E0,0E0,8.165543E-1,2.5586262E0,1.4591633E0,1.5114605E0,1.7871493E0,1.7280962E0,1.6173629E0,2.1403456E0,0E0,0E0,5.8746E-1,0E0,8.17168E-1,5.558804E-1,0E0,0E0,5.992044E-1,0E0,0E0,0E0,1.1730292E0,0E0,1.0140817E0,1.0709074E0,0E0,5.6198114E-1,7.616062E-1,1.1294245E0,1.5066993E0,1.8460944E0,1.9042783E0,8.1575316E-1,1.5858462E0,1.1731026E0,1.8073349E0,6.6430306E-1,1.0384448E0,1.7518048E0,1.9646063E0,0E0,0E0,0E0,0E0,1.1023282E0,4.9632823E-1,0E0,0E0,0E0,1.138386E0,1.4085293E0,0E0,8.377272E-1,0E0,5.826473E-1,0E0,0E0,1.765106E0,2.0060635E-1,1.4291711E0,1.0074388E0,8.510084E-1,1.7255011E0,1.4258912E0,7.811732E-1,1.7990623E0,1.0797582E0,0E0,0E0,8.364053E-1,2.1352997E0,1.1778467E0,1.0627189E0,1.8383363E0,8.0186033E-1,6.8149686E-1,0E0,1.0514097E0,1.1619577E0,1.097126E0,1.6513522E0,2.6924086E-1,2.2852573E0,0E0,0E0,0E0,0E0,0E0,0E0,0E0,0E0,0E0,0E0,0E0,0E0,0E0,0E0,0E0,0E0,0E0,0E0,0E0,0E0,0E0,0E0,0E0,0E0,0E0,0E0,0E0,0E0,0E0,0E0,0E0,0E0,0E0,0E0,0E0,0E0,0E0,0E0,0E0,0E0,0E0,0E0,0E0,0E0,0E0,0E0,0E0,0E0,0E0,0E0,0E0,0E0,0E0,0E0,0E0,0E0,0E0,0E0],"parents":[2147483647,0,0,1,1,2,2,3,3,4,4,5,5,6,6,7,7,10,10,11,11,12,12,13,13,14,14,15,15,16,16,17,17,18,18,19,19,21,21,22,22,23,23,24,24,25,25,26,26,28,28,29,29,31,31,33,33,35,35,36,36,37,37,39,39,41,41,42,42,43,43,44,44,45,45,46,46,47,47,48,48,51,51,53,53,54,54,57,57,61,61,63,63,64,64,66,66,67,67,68,68,69,69,70,70,71,71,72,72,73,73,74,74,75,75,76,76,77,77,78,78,79,79,84,84,85,85,89,89,90,90,92,92,94,94,97,97,98,98,99,99,100,100,101,101,102,102,103,103,104,104,105,105,106,106,109,109,110,110,111,111,112,112,113,113,114,114,115,115,117,117,118,118,119,119,120,120,121,121,122,122],"right_children":[2,4,6,8,10,12,14,16,-1,-1,18,20,22,24,26,28,30,32,34,36,-1,38,40,42,44,46,48,-1,50,52,-1,54,-1,56,-1,58,60,62,-1,64,-1,66,68,70,72,74,76,78,80,-1,-1,82,-1,84,86,-1,-1,88,-1,-1,-1,90,-1,92,94,-1,96,98,100,102,104,106,108,110,112,114,116,118,120,122,-1,-1,-1,-1,124,126,-1,-1,-1,128,130,-1,132,-1,134,-1,-1,136,138,140,142,144,146,148,150,152,154,-1,-1,156,158,160,162,164,166,168,-1,170,172,174,176,178,180,-1,-1,-1,-1,-1,-1,-1,-1,-1,-1,-1,-1,-1,-1,-1,-1,-1,-1,-1,-1,-1,-1,-1,-1,-1,-1,-1,-1,-1,-1,-1,-1,-1,-1,-1,-1,-1,-1,-1,-1,-1,-1,-1,-1,-1,-1,-1,-1,-1,-1,-1,-1,-1,-1,-1,-1,-1,-1],"split_conditions":[-1.13E2,-1.2591685E-1,-4.7211307E-1,7E0,-2E0,6.8159205E-1,-2.4343008E-2,-5.2124995E-1,-1.5043003E-2,-1.4353894E-2,5.8448154E-1,-9.0940934E-1,4E0,-6E0,1E0,-4.572507E-1,-8E0,5.6E1,1.0320594E0,1E0,-1.5158419E-2,1.6158941E0,4E0,7.837838E-1,1E0,9.464286E-1,8E0,1.5081795E-2,-1.21E2,5.426357E-1,1.3726712E-2,1.2375479E0,-1.38579905E-2,3.8E1,1.4476826E-2,1.4E1,-7E1,1.5043478E0,-1.3684683E-2,4.1E1,1.443556E-2,1.5E1,2.8E1,8E0,4E0,7.652439E-1,5.8E1,-1E1,3E2,-1.4677232E-2,1.3858782E-2,-1.84E2,-1.52739845E-2,-7.599871E-2,-2E0,-1.4647672E-2,1.2007509E-2,-3.3E1,1.4327246E-2,1.141242E-2,-1.5019592E-2,8.2978725E-1,1.4530259E-2,-2.4E1,3E0,1.4724634E-2,-1.8E1,-1.8E1,-1.8164322E-1,-7.716734E-1,3E1,4E0,-7.8E1,-1.6E1,-5.5E1,3E0,3E0,9.328859E-1,9.586777E-1,8.374656E-1,1.4922679E-2,-1.3313928E-2,1.3267899E-2,1.5070648E-2,9.586777E-1,3.1E1,-1.352873E-2,1.2958824E-2,-1.3907453E-2,7.1967655E-1,-1.1838613E0,1.4748404E-2,7.1967655E-1,-1.5302465E-2,7E0,1.2635184E-2,-1.3379127E-2,3.5E0,2.2E1,-1.1E1,-1.3E1,4.4E1,-1.879425E-1,-3.0682594E-1,-5.3E1,6.246263E-1,9.7849464E-1,-1.3147836E-2,1.4687647E-2,2.9E1,6.766667E-1,-6.1E1,-8E1,1.0677966E0,4.2E1,-2E0,-1.2038911E-2,2E2,9.6069866E-1,1.0016816E0,-3E0,-3E0,9.0909094E-1,-3.605897E-3,1.1835233E-2,1.2918897E-2,-1.1544734E-2,-9.358812E-5,1.0809292E-2,-1.4802796E-2,3.0606473E-3,1.4701337E-2,-1.2211228E-3,-1.245969E-2,1.404868E-2,-1.4882152E-2,1.3969161E-2,-1.52251115E-2,-7.378369E-3,1.3509644E-2,-1.4741806E-2,-1.3368507E-2,9.296384E-3,1.4727016E-2,-1.268685E-2,-4.8233904E-3,3.950928E-3,6.2038354E-3,-8.841836E-3,-1.2497339E-2,1.477296E-2,-9.844517E-3,1.6508667E-3,-4.4268807E-3,1.9264251E-3,-1.4863465E-2,1.370113E-2,-9.742081E-3,9.793963E-3,-1.111859E-3,1.4769192E-2,-1.4520737E-2,-2.475757E-3,-4.0512928E-4,4.733003E-3,1.1486508E-2,-4.916012E-3,-5.1669733E-5,1.3654229E-2,8.951921E-3,-7.3051923E-3,-1.4528128E-2,2.025098E-3,-6.4477082E-3,8.200908E-3,-1.0071977E-2,2.3573304E-3,-8.270058E-3,-1.5330461E-2,1.1535563E-2,-4.726036E-3],"split_indices":[0,16,16,1,4,11,16,17,0,0,16,16,2,2,3,16,1,1,16,8,0,11,3,9,2,9,5,0,0,9,0,11,0,1,0,0,1,11,0,1,0,5,0,5,4,9,1,1,14,0,0,0,0,17,2,0,0,0,0,0,0,9,0,5,8,0,1,5,17,17,1,2,0,5,1,8,4,11,11,11,0,0,0,0,11,1,0,0,0,9,17,0,9,0,2,0,0,12,5,2,5,1,17,16,0,17,11,0,0,1,9,1,0,11,1,4,0,14,11,17,1,2,11,0,0,0,0,0,0,0,0,0,0,0,0,0,0,0,0,0,0,0,0,0,0,0,0,0,0,0,0,0,0,0,0,0,0,0,0,0,0,0,0,0,0,0,0,0,0,0,0,0,0,0,0,0,0,0,0,0,0],"split_type":[0,0,0,0,0,0,0,0,0,0,0,0,0,0,0,0,0,0,0,0,0,0,0,0,0,0,0,0,0,0,0,0,0,0,0,0,0,0,0,0,0,0,0,0,0,0,0,0,0,0,0,0,0,0,0,0,0,0,0,0,0,0,0,0,0,0,0,0,0,0,0,0,0,0,0,0,0,0,0,0,0,0,0,0,0,0,0,0,0,0,0,0,0,0,0,0,0,0,0,0,0,0,0,0,0,0,0,0,0,0,0,0,0,0,0,0,0,0,0,0,0,0,0,0,0,0,0,0,0,0,0,0,0,0,0,0,0,0,0,0,0,0,0,0,0,0,0,0,0,0,0,0,0,0,0,0,0,0,0,0,0,0,0,0,0,0,0,0,0,0,0,0,0,0,0,0,0,0,0,0,0],"sum_hessian":[1.867E3,1.03E2,1.764E3,4.9E1,5.4E1,4.18E2,1.346E3,3E1,1.9E1,5E0,4.9E1,2.5E1,3.93E2,4.25E2,9.21E2,1.1E1,1.9E1,3.8E1,1.1E1,1.2E1,1.3E1,2.85E2,1.08E2,7.8E1,3.47E2,5.36E2,3.85E2,6E0,5E0,1.6E1,3E0,3.5E1,3E0,9E0,2E0,7E0,5E0,2.81E2,4E0,1.03E2,5E0,9E0,6.9E1,1.63E2,1.84E2,2.13E2,3.23E2,2.81E2,1.04E2,3E0,2E0,3E0,1.3E1,2.9E1,6E0,8E0,1E0,3E0,4E0,1E0,4E0,2.72E2,9E0,8.9E1,1.4E1,6E0,3E0,4.7E1,2.2E1,1.16E2,4.7E1,1.77E2,7E0,4.6E1,1.67E2,2.96E2,2.7E1,1.11E2,1.7E2,9.9E1,5E0,2E0,1E0,1.2E1,1.7E1,3E0,3E0,1E0,2E0,4.7E1,2.25E2,4E0,8.5E1,1.1E1,3E0,1E0,2E0,8E0,3.9E1,9E0,1.3E1,1.3E1,1.03E2,4E1,7E0,7.7E1,1E2,1E0,6E0,6E0,4E1,1.8E1,1.49E2,2.67E2,2.9E1,2.6E1,1E0,3.9E1,7.2E1,6.7E1,1.03E2,2.4E1,7.5E1,8E0,9E0,2E0,1E0,1.2E1,3.5E1,4E0,2.21E2,3E0,8.2E1,1E0,2E0,5E0,3E0,3.5E1,4E0,2E0,7E0,2E0,1.1E1,1.2E1,1E0,2.9E1,7.4E1,7E0,3.3E1,1E0,6E0,6.1E1,1.6E1,4.7E1,5.3E1,5E0,1E0,6E0,3.4E1,1.1E1,7E0,7E0,1.42E2,1.55E2,1.12E2,2.6E1,3E0,4E0,2.2E1,3.5E1,4E0,4E0,6.8E1,6.2E1,5E0,1.1E1,9.2E1,9E0,1.5E1,9E0,6.6E1],"tree_param":{"num_deleted":"0","num_feature":"18","num_nodes":"181","size_leaf_vector":"1"}},{"base_weights":[-4.6883062E-3,8.9630345E-3,-8.576422E-2,3.9014742E-1,6.219289E-3,-2.2645374E-1,-4.939535E-2,-7.902927E-3,1.4578818E-2,-5.9982188E-2,2.2275701E-2,-1.5174269E-2,-1.2991175E-1,-1.7968921E-1,-4.1108E-3,-1.2820621E-2,1.2372897E-2,-3.509898E-2,-3.1301177E-1,5.5878658E-2,-1.6405169E-2,-2.1299517E-1,3.321228E-1,1.24519095E-1,-2.5774312E-1,2.5715834E-1,-5.6697533E-2,1.4346549E-2,-4.8529215E-2,1.2344362E-2,-3.4360602E-1,4.115098E-2,2.7513322E-1,-1.4655216E-2,-1.0606514E-2,-3.3919045E-1,9.0596706E-2,-1.2162549E-2,1.4931119E-2,-1.4620738E-2,3.5701457E-1,2.8576242E-2,-3.5571724E-1,2.320922E-2,1.4890794E-2,-1.5344673E-1,5.6314036E-2,-1.3071132E-1,1.9303123E-2,-3.7654886E-1,1.229433E-2,7.3807634E-2,-4.157947E-2,4.114752E-1,2.74049E-2,-3.639057E-3,-3.3235323E-1,1.6385978E-1,-4.119789E-1,-1.6582099E-1,1.4198527E-2,1.4598211E-2,-1.2908061E-2,1.3609236E-2,-1.3498236E-1,-3.8305372E-1,1.2561364E-2,-2.2803617E-1,3.1416574E-1,1.9147445E-1,-2.644061E-1,2.2370346E-1,-1.11459E-1,1.07714795E-1,-2.1199727E-1,-1.394964E-2,3.657693E-2,-4.116714E-1,1.19630145E-2,2.5079109E-2,1.9652618E-1,-8.861203E-2,2.0915392E-1,-1.3145714E-2,4.4703633E-1,1.5753569E-1,-1.43485265E-2,5.5622432E-2,-4.3862604E-2,-1.4879521E-2,1.319445E-1,1.4141808E-2,-1.25301E-2,-1.6490494E-1,-1.5506947E-2,1.3222844E-2,-1.4422327E-2,1.5885918E-1,-3.1063187E-1,1.2083824E-2,-4.1157424E-1,-1.49219865E-2,1.242607E-2,1.4537736E-2,-1.3286445E-2,-1.4201563E-2,2.841608E-1,-3.4013492E-1,2.5674062E-2,-2.497758E-1,2.979758E-1,3.6220558E-2,-4.015054E-1,5.2445116E-3,-1.4063328E-2,-9.909287E-3,1.2447701E-3,-3.4240158E-3,2.7659684E-3,-5.3063274E-4,-1.366799E-2,1.2435478E-2,3.084813E-4,-6.47407E-3,7.076772E-3,-4.4466712E-4,-1.01037035E-2,9.737779E-3,-8.751134E-3,1.4821698E-2,-1.2710051E-2,1.0865092E-2,-7.215964E-3,3.6030028E-3,-2.7722884E-3,4.3026535E-3,-2.1064044E-3,1.2616476E-2,-1.2332956E-2,1.3536841E-2,-1.4545852E-2,1.3321871E-2,-1.1438273E-2,-1.52508635E-2,1.2157786E-2,-7.1241276E-4,-1.4390514E-2,1.0395093E-2,-1.2848698E-2,6.90072E-3,-1.2249603E-2,1.0049147E-2,-1.5117469E-2,1.2683798E-2,-1.4800694E-2,-1.2144815E-2,1.0055956E-2,-8.442057E-3,8.933288E-3,-1.5323698E-2,2.0565161E-4],"categories":[],"categories_nodes":[],"categories_segments":[],"categories_sizes":[],"default_left":[0,0,0,0,0,0,0,0,0,0,0,0,0,0,0,0,0,0,0,0,0,0,0,0,0,0,0,0,0,0,0,0,0,0,0,0,0,0,0,0,0,0,0,0,0,0,0,0,0,0,0,0,0,0,0,0,0,0,0,0,0,0,0,0,0,0,0,0,0,0,0,0,0,0,0,0,0,0,0,0,0,0,0,0,0,0,0,0,0,0,0,0,0,0,0,0,0,0,0,0,0,0,0,0,0,0,0,0,0,0,0,0,0,0,0,0,0,0,0,0,0,0,0,0,0,0,0,0,0,0,0,0,0,0,0,0,0,0,0,0,0,0,0,0,0,0,0,0,0,0,0,0,0,0,0,0,0,0,0,0,0],"id":7,"left_children":[1,3,5,7,9,11,13,15,-1,17,19,-1,21,23,25,-1,-1,27,29,31,33,35,37,39,41,43,45,-1,47,-1,49,51,53,-1,55,57,59,-1,-1,-1,61,63,65,67,-1,69,71,73,75,77,-1,79,81,83,85,87,89,91,93,95,-1,-1,-1,-1,97,99,-1,101,103,105,107,109,111,113,115,-1,117,119,-1,121,123,125,127,-1,129,131,-1,133,135,-1,137,-1,-1,139,-1,-1,-1,141,143,-1,145,-1,-1,-1,-1,-1,147,149,151,153,155,157,159,-1,-1,-1,-1,-1,-1,-1,-1,-1,-1,-1,-1,-1,-1,-1,-1,-1,-1,-1,-1,-1,-1,-1,-1,-1,-1,-1,-1,-1,-1,-1,-1,-1,-1,-1,-1,-1,-1,-1,-1,-1,-1,-1,-1,-1,-1,-1,-1],"loss_changes":[2.0291693E0,1.6405841E0,1.3494672E0,3.8753986E-1,1.6565838E0,1.3983598E0,1.2401016E0,4.108153E-1,0E0,1.912966E0,1.6304146E0,0E0,1.5584167E0,1.293988E0,2.149234E0,0E0,0E0,1.8821683E0,6.258185E-1,2.1649513E0,1.5642064E0,1.3171862E0,7.4885947E-1,1.6066673E0,1.2143514E0,1.4068196E0,1.4255328E0,0E0,1.5068742E0,0E0,6.7568946E-1,1.700591E0,1.4232025E0,0E0,1.2913834E0,9.007511E-1,9.948051E-1,0E0,0E0,0E0,8.1269157E-1,7.763941E-1,7.080288E-1,9.807817E-1,0E0,2.6977715E0,1.6961845E0,2.37335E0,1.220802E0,7.137196E-1,0E0,2.6970963E0,2.1054358E0,8.545847E-1,9.9853086E-1,1.3454224E0,8.8819754E-1,5.8984363E-1,4.809618E-1,1.1792759E0,0E0,0E0,0E0,0E0,4.3417615E-1,7.2695637E-1,0E0,1.2309705E0,7.933556E-1,1.0740209E0,1.17081E0,1.0780529E0,1.2971773E0,1.1468929E0,2.5862265E0,0E0,1.1484687E0,3.3554745E-1,0E0,1.847981E0,1.8378735E0,2.689428E0,1.5467443E0,0E0,8.9482164E-1,9.681203E-1,0E0,2.0791578E0,1.5550654E0,0E0,5.173148E-1,0E0,0E0,1.2171354E0,0E0,0E0,0E0,5.0791204E-1,7.359961E-1,0E0,6.903219E-1,0E0,0E0,0E0,0E0,0E0,6.278931E-1,1.4635458E0,1.8005702E0,6.9776964E-1,5.9043217E-1,1.6324279E0,4.1617882E-1,0E0,0E0,0E0,0E0,0E0,0E0,0E0,0E0,0E0,0E0,0E0,0E0,0E0,0E0,0E0,0E0,0E0,0E0,0E0,0E0,0E0,0E0,0E0,0E0,0E0,0E0,0E0,0E0,0E0,0E0,0E0,0E0,0E0,0E0,0E0,0E0,0E0,0E0,0E0,0E0,0E0,0E0,0E0,0E0,0E0,0E0,0E0,0E0],"parents":[2147483647,0,0,1,1,2,2,3,3,4,4,5,5,6,6,7,7,9,9,10,10,12,12,13,13,14,14,17,17,18,18,19,19,20,20,21,21,22,22,23,23,24,24,25,25,26,26,28,28,30,30,31,31,32,32,34,34,35,35,36,36,40,40,41,41,42,42,43,43,45,45,46,46,47,47,48,48,49,49,51,51,52,52,53,53,54,54,55,55,56,56,57,57,58,58,59,59,64,64,65,65,67,67,68,68,69,69,70,70,71,71,72,72,73,73,74,74,76,76,77,77,79,79,80,80,81,81,82,82,84,84,85,85,87,87,88,88,90,90,93,93,97,97,98,98,100,100,106,106,107,107,108,108,109,109,110,110,111,111,112,112],"right_children":[2,4,6,8,10,12,14,16,-1,18,20,-1,22,24,26,-1,-1,28,30,32,34,36,38,40,42,44,46,-1,48,-1,50,52,54,-1,56,58,60,-1,-1,-1,62,64,66,68,-1,70,72,74,76,78,-1,80,82,84,86,88,90,92,94,96,-1,-1,-1,-1,98,100,-1,102,104,106,108,110,112,114,116,-1,118,120,-1,122,124,126,128,-1,130,132,-1,134,136,-1,138,-1,-1,140,-1,-1,-1,142,144,-1,146,-1,-1,-1,-1,-1,148,150,152,154,156,158,160,-1,-1,-1,-1,-1,-1,-1,-1,-1,-1,-1,-1,-1,-1,-1,-1,-1,-1,-1,-1,-1,-1,-1,-1,-1,-1,-1,-1,-1,-1,-1,-1,-1,-1,-1,-1,-1,-1,-1,-1,-1,-1,-1,-1,-1,-1,-1,-1],"split_conditions":[6.858555E-1,-1.7E2,-7.2E1,-5.6300133E-1,8.081761E-1,-1E0,-2E0,-6.5E1,1.4578818E-2,7.955801E-1,4.078204E-2,-1.5174269E-2,1.1713085E0,7.8347576E-1,5.5E0,-1.2820621E-2,1.2372897E-2,-8.9E1,-1.4E2,-4.958689E-3,5.3294413E-2,9E0,-3E0,-1.06E2,-1.8E1,1.0952381E0,-8.0914125E-2,1.4346549E-2,-2.7747065E-1,1.2344362E-2,4E0,3E0,-8.287881E-3,-1.4655216E-2,1.49E2,-1.28E2,-8.6E1,-1.2162549E-2,1.4931119E-2,-1.4620738E-2,3E0,0E0,4E0,2E1,1.4890794E-2,-1E0,-7E0,3E0,-7.4E1,9E0,1.229433E-2,1.9096342E-1,5E0,-3E0,6E0,0E0,2E0,-2E0,7.9798263E-1,-3E0,1.4198527E-2,1.4598211E-2,-1.2908061E-2,1.3609236E-2,7.52129E-1,-1.0440588E0,1.2561364E-2,1.0753051E0,1E0,7.52129E-1,1.1E1,-1E0,4.1E1,-3.5237977E-1,-8E1,-1.394964E-2,3E0,-2E0,1.19630145E-2,-5.2E1,3.5E0,5.7E1,2E0,-1.3145714E-2,4E0,1E0,-1.43485265E-2,1.9E1,-3E0,-1.4879521E-2,1.7E2,1.4141808E-2,-1.25301E-2,4.5E0,-1.5506947E-2,1.3222844E-2,-1.4422327E-2,1.6E1,-1.9E1,1.2083824E-2,7.0923245E-1,-1.49219865E-2,1.242607E-2,1.4537736E-2,-1.3286445E-2,-1.4201563E-2,1.29E2,-2E0,9.5259947E-1,-6.8E1,-3E0,0E0,8.249814E-1,5.2445116E-3,-1.4063328E-2,-9.909287E-3,1.2447701E-3,-3.4240158E-3,2.7659684E-3,-5.3063274E-4,-1.366799E-2,1.2435478E-2,3.084813E-4,-6.47407E-3,7.076772E-3,-4.4466712E-4,-1.01037035E-2,9.737779E-3,-8.751134E-3,1.4821698E-2,-1.2710051E-2,1.0865092E-2,-7.215964E-3,3.6030028E-3,-2.7722884E-3,4.3026535E-3,-2.1064044E-3,1.2616476E-2,-1.2332956E-2,1.3536841E-2,-1.4545852E-2,1.3321871E-2,-1.1438273E-2,-1.52508635E-2,1.2157786E-2,-7.1241276E-4,-1.4390514E-2,1.0395093E-2,-1.2848698E-2,6.90072E-3,-1.2249603E-2,1.0049147E-2,-1.5117469E-2,1.2683798E-2,-1.4800694E-2,-1.2144815E-2,1.0055956E-2,-8.442057E-3,8.933288E-3,-1.5323698E-2,2.0565161E-4],"split_indices":[17,6,0,17,11,13,7,0,0,11,16,0,17,11,15,0,0,1,0,16,16,15,3,6,1,11,16,0,17,0,3,7,17,0,0,0,0,0,0,0,8,8,8,0,0,8,6,12,1,7,0,17,12,3,1,4,3,6,17,7,0,0,0,0,17,16,0,17,4,17,15,3,0,17,6,0,12,4,0,6,15,0,13,0,3,3,0,1,13,0,0,0,0,15,0,0,0,0,1,0,17,0,0,0,0,0,6,3,17,0,4,8,16,0,0,0,0,0,0,0,0,0,0,0,0,0,0,0,0,0,0,0,0,0,0,0,0,0,0,0,0,0,0,0,0,0,0,0,0,0,0,0,0,0,0,0,0,0,0,0,0],"split_type":[0,0,0,0,0,0,0,0,0,0,0,0,0,0,0,0,0,0,0,0,0,0,0,0,0,0,0,0,0,0,0,0,0,0,0,0,0,0,0,0,0,0,0,0,0,0,0,0,0,0,0,0,0,0,0,0,0,0,0,0,0,0,0,0,0,0,0,0,0,0,0,0,0,0,0,0,0,0,0,0,0,0,0,0,0,0,0,0,0,0,0,0,0,0,0,0,0,0,0,0,0,0,0,0,0,0,0,0,0,0,0,0,0,0,0,0,0,0,0,0,0,0,0,0,0,0,0,0,0,0,0,0,0,0,0,0,0,0,0,0,0,0,0,0,0,0,0,0,0,0,0,0,0,0,0,0,0,0,0,0,0],"sum_hessian":[1.833E3,1.569E3,2.64E2,1.1E1,1.558E3,5.4E1,2.1E2,2E0,9E0,3.04E2,1.254E3,1.4E1,4E1,5.4E1,1.56E2,1E0,1E0,2.77E2,2.7E1,6.71E2,5.83E2,3.4E1,6E0,1.1E1,4.3E1,2.6E1,1.3E2,7E0,2.7E2,1E0,2.6E1,6.29E2,4.2E1,7E0,5.76E2,2.4E1,1E1,1E0,5E0,3E0,8E0,1.1E1,3.2E1,1.3E1,1.3E1,7E1,6E1,1.22E2,1.48E2,2.5E1,1E0,4.51E2,1.78E2,2.7E1,1.5E1,5.64E2,1.2E1,3E0,2.1E1,6E0,4E0,7E0,1E0,3E0,8E0,3.1E1,1E0,7E0,6E0,1.7E1,5.3E1,3E1,3E1,3.1E1,9.1E1,5E0,1.43E2,2.4E1,1E0,3.23E2,1.28E2,1.5E2,2.8E1,1E0,2.6E1,1.2E1,3E0,2.28E2,3.36E2,9E0,3E0,2E0,1E0,6E0,1.5E1,2E0,4E0,3E0,5E0,1E0,3E1,5E0,2E0,5E0,1E0,2E0,1.5E1,4.2E1,1.1E1,4E0,2.6E1,2E1,1E1,2.8E1,3E0,6.3E1,2.8E1,3.8E1,1.05E2,2E0,2.2E1,1.2E1,3.11E2,1E1,1.18E2,1.15E2,3.5E1,2.3E1,5E0,2.5E1,1E0,8E0,4E0,1.6E2,6.8E1,4E1,2.96E2,2E0,1E0,2E0,4E0,2E0,1E0,4E0,1E0,4E0,2.6E1,1.4E1,1E0,4E0,3.8E1,7E0,4E0,1E0,3E0,1E0,2.5E1,9E0,1.1E1,8E0,2E0],"tree_param":{"num_deleted":"0","num_feature":"18","num_nodes":"161","size_leaf_vector":"1"}},{"base_weights":[-9.648025E-3,-1.6664142E-2,2.1033333E-1,-3.9060425E-2,3.5965554E-2,3.2155135E-1,-2.4753539E-2,2.6095916E-2,-5.7733502E-2,4.2030234E-2,-3.68392E-1,1.0951508E-1,1.5054384E-2,3.2483625E-1,-1.8872462E-1,1.4828882E-1,-5.1996216E-2,-4.0493894E-1,-5.3833544E-2,2.5423538E-2,1.7598161E-1,1.2507711E-2,-1.4927144E-2,3.845609E-1,-2.3530516E-1,-1.3182322E-2,1.4902441E-2,1.3638842E-2,-3.1036365E-1,2.8700504E-1,4.1488096E-2,1.493811E-2,-6.507367E-2,1.2372611E-2,-1.5061852E-2,-5.0876435E-2,-1.4064666E-2,8.038989E-2,-2.564011E-2,1.1446691E-1,1.4519067E-2,1.46876015E-2,-7.7246367E-3,-1.4405665E-2,1.6277017E-1,1.26728425E-2,-3.8991454E-1,-1.4450524E-2,3.3847508E-1,1.4469086E-1,-1.6915922E-1,1.4211093E-1,-9.231618E-2,-5.879363E-2,2.110928E-1,3.260616E-1,5.3311296E-2,-1.3598473E-1,3.0622194E-2,2.8248855E-1,1.0268162E-2,-1.2162745E-2,1.1724976E-2,1.3943812E-2,-1.2256885E-2,1.2606858E-2,-1.4874339E-2,1.4898329E-2,2.3082203E-1,1.2682502E-2,3.2575795E-1,-3.90516E-1,3.5602547E-2,2.5202498E-1,-1.3954202E-2,-1.202167E-1,2.3191822E-1,-3.5930626E-2,-1.21364065E-1,-1.2908453E-1,3.4069112E-1,1.5292131E-2,5.00396E-2,-2.2306724E-2,1.3554528E-1,-3.8795136E-2,-3.0387238E-1,-1.5060681E-2,4.408048E-2,-7.740622E-2,1.4987754E-2,1.3897931E-2,-5.854239E-2,9.976517E-4,1.2586546E-2,-1.4057416E-2,2.4723995E-3,7.872298E-5,1.27406E-2,-1.489985E-2,1.26458425E-2,-1.0034894E-2,1.4304583E-2,1.4635381E-2,-2.634918E-4,-2.8792664E-3,-1.5025841E-2,-1.4519898E-2,1.4462997E-2,2.9948555E-4,-2.3150535E-3,-8.107234E-3,-1.6185698E-3,1.4355073E-2,-1.506593E-2,1.4674468E-2,-7.503107E-3,-8.994441E-3,1.4479673E-2,-3.7084615E-3,4.2116786E-3,-6.927577E-3,5.5109025E-3,2.856499E-4,-1.5041518E-2,-1.1591221E-2,2.6508144E-3,-1.4286169E-2,1.7595552E-3,7.350523E-3,-1.4958509E-2,1.2007239E-3,-1.4468234E-2],"categories":[],"categories_nodes":[],"categories_segments":[],"categories_sizes":[],"default_left":[0,0,0,0,0,0,0,0,0,0,0,0,0,0,0,0,0,0,0,0,0,0,0,0,0,0,0,0,0,0,0,0,0,0,0,0,0,0,0,0,0,0,0,0,0,0,0,0,0,0,0,0,0,0,0,0,0,0,0,0,0,0,0,0,0,0,0,0,0,0,0,0,0,0,0,0,0,0,0,0,0,0,0,0,0,0,0,0,0,0,0,0,0,0,0,0,0,0,0,0,0,0,0,0,0,0,0,0,0,0,0,0,0,0,0,0,0,0,0,0,0,0,0,0,0,0,0,0,0,0,0,0,0],"id":8,"left_children":[1,3,5,7,9,11,13,15,17,19,21,23,-1,25,27,29,31,33,35,37,39,-1,-1,41,43,-1,-1,-1,45,47,49,-1,51,-1,-1,53,-1,55,57,59,-1,-1,61,-1,63,-1,65,-1,67,69,71,73,75,77,79,81,83,85,87,89,91,-1,-1,-1,-1,-1,-1,-1,93,95,97,99,101,103,-1,105,107,109,111,113,115,-1,117,119,121,123,125,-1,127,129,-1,-1,131,-1,-1,-1,-1,-1,-1,-1,-1,-1,-1,-1,-1,-1,-1,-1,-1,-1,-1,-1,-1,-1,-1,-1,-1,-1,-1,-1,-1,-1,-1,-1,-1,-1,-1,-1,-1,-1,-1,-1,-1],"loss_changes":[2.9566522E0,2.188229E0,1.5498552E0,1.5846843E0,1.3622625E0,1.4446964E0,1.1140434E0,2.770921E0,1.3659186E0,1.2140473E0,8.066555E-1,1.7461591E0,0E0,8.072783E-1,1.0490924E0,1.6746223E0,1.2592533E0,8.3741593E-1,1.1974113E0,1.365134E0,1.0953263E0,0E0,0E0,3.8456595E-1,7.8695214E-1,0E0,0E0,0E0,6.803682E-1,1.9575658E0,1.4010339E0,0E0,9.8038495E-1,0E0,0E0,2.0646243E0,0E0,1.5543185E0,1.5666853E0,8.783798E-1,0E0,0E0,3.6933288E-1,0E0,5.690732E-1,0E0,8.329576E-1,0E0,7.162266E-1,1.0318738E0,9.643802E-1,1.353586E0,1.3918227E0,1.3798225E0,1.2970805E0,1.1097107E0,1.3140488E0,1.3878043E0,1.1817812E0,1.4438969E0,9.597784E-1,0E0,0E0,0E0,0E0,0E0,0E0,0E0,9.7217596E-1,8.1968844E-1,5.347307E-1,8.369217E-1,1.794992E0,1.017527E0,0E0,1.3556757E0,2.1278112E0,1.286607E0,2.5374196E0,1.8356955E0,1.7555523E0,0E0,1.3719343E0,1.7493354E0,1.6462517E0,1.1835412E0,9.237888E-1,0E0,1.129173E0,9.6841705E-1,0E0,0E0,1.1075522E0,0E0,0E0,0E0,0E0,0E0,0E0,0E0,0E0,0E0,0E0,0E0,0E0,0E0,0E0,0E0,0E0,0E0,0E0,0E0,0E0,0E0,0E0,0E0,0E0,0E0,0E0,0E0,0E0,0E0,0E0,0E0,0E0,0E0,0E0,0E0,0E0,0E0,0E0,0E0,0E0],"parents":[2147483647,0,0,1,1,2,2,3,3,4,4,5,5,6,6,7,7,8,8,9,9,10,10,11,11,13,13,14,14,15,15,16,16,17,17,18,18,19,19,20,20,23,23,24,24,28,28,29,29,30,30,32,32,35,35,37,37,38,38,39,39,42,42,44,44,46,46,48,48,49,49,50,50,51,51,52,52,53,53,54,54,55,55,56,56,57,57,58,58,59,59,60,60,68,68,69,69,70,70,71,71,72,72,73,73,75,75,76,76,77,77,78,78,79,79,80,80,82,82,83,83,84,84,85,85,86,86,88,88,89,89,92,92],"right_children":[2,4,6,8,10,12,14,16,18,20,22,24,-1,26,28,30,32,34,36,38,40,-1,-1,42,44,-1,-1,-1,46,48,50,-1,52,-1,-1,54,-1,56,58,60,-1,-1,62,-1,64,-1,66,-1,68,70,72,74,76,78,80,82,84,86,88,90,92,-1,-1,-1,-1,-1,-1,-1,94,96,98,100,102,104,-1,106,108,110,112,114,116,-1,118,120,122,124,126,-1,128,130,-1,-1,132,-1,-1,-1,-1,-1,-1,-1,-1,-1,-1,-1,-1,-1,-1,-1,-1,-1,-1,-1,-1,-1,-1,-1,-1,-1,-1,-1,-1,-1,-1,-1,-1,-1,-1,-1,-1,-1,-1,-1,-1],"split_conditions":[5E0,4.5E0,5E1,-2E0,1.58E2,0E0,5.5E0,3.5E0,-2.5E1,1.15E1,5.856481E-1,-5E1,1.5054384E-2,-2.8E1,-7E1,-1E0,6.3438255E-1,-5.3E1,1.7E2,0E0,1E2,1.2507711E-2,-1.4927144E-2,1.01E2,2.2E1,-1.3182322E-2,1.4902441E-2,1.3638842E-2,-8.3E1,-2.4E1,9.5E0,1.493811E-2,-2E0,1.2372611E-2,-1.5061852E-2,1.31E2,-1.4064666E-2,7.204611E-1,3E0,-2.5E1,1.4519067E-2,1.46876015E-2,1.05E2,-1.4405665E-2,5.7E1,1.26728425E-2,-1.1E1,-1.4450524E-2,9.282297E-1,6E0,0E0,1E2,2E2,4E1,-3.1E1,5.5E0,2E0,5.5E0,6.309227E-1,-1E0,-1.4E1,-1.2162745E-2,1.1724976E-2,1.3943812E-2,-1.2256885E-2,1.2606858E-2,-1.4874339E-2,1.4898329E-2,-8E0,-2E0,6.980609E-1,1.2E1,0E0,1.0154321E0,-1.3954202E-2,1E2,-2E0,7.5E0,9.2195123E-1,5E0,3E0,1.5292131E-2,6.690821E-1,1.1091549E0,7.955801E-1,1.9E1,1E2,-1.5060681E-2,-3E0,-2E0,1.4987754E-2,1.3897931E-2,3.1E1,9.976517E-4,1.2586546E-2,-1.4057416E-2,2.4723995E-3,7.872298E-5,1.27406E-2,-1.489985E-2,1.26458425E-2,-1.0034894E-2,1.4304583E-2,1.4635381E-2,-2.634918E-4,-2.8792664E-3,-1.5025841E-2,-1.4519898E-2,1.4462997E-2,2.9948555E-4,-2.3150535E-3,-8.107234E-3,-1.6185698E-3,1.4355073E-2,-1.506593E-2,1.4674468E-2,-7.503107E-3,-8.994441E-3,1.4479673E-2,-3.7084615E-3,4.2116786E-3,-6.927577E-3,5.5109025E-3,2.856499E-4,-1.5041518E-2,-1.1591221E-2,2.6508144E-3,-1.4286169E-2,1.7595552E-3,7.350523E-3,-1.4958509E-2,1.2007239E-3,-1.4468234E-2],"split_indices":[13,12,14,13,0,14,15,12,5,15,11,14,0,0,1,5,9,1,0,2,14,0,0,0,1,0,0,0,0,5,15,0,3,0,0,0,0,11,2,14,0,0,0,0,0,0,2,0,10,1,14,14,14,0,1,12,5,12,11,3,5,0,0,0,0,0,0,0,5,4,11,5,3,11,0,14,4,15,10,15,3,0,11,11,11,5,14,0,4,3,0,0,1,0,0,0,0,0,0,0,0,0,0,0,0,0,0,0,0,0,0,0,0,0,0,0,0,0,0,0,0,0,0,0,0,0,0,0,0,0,0,0,0],"split_type":[0,0,0,0,0,0,0,0,0,0,0,0,0,0,0,0,0,0,0,0,0,0,0,0,0,0,0,0,0,0,0,0,0,0,0,0,0,0,0,0,0,0,0,0,0,0,0,0,0,0,0,0,0,0,0,0,0,0,0,0,0,0,0,0,0,0,0,0,0,0,0,0,0,0,0,0,0,0,0,0,0,0,0,0,0,0,0,0,0,0,0,0,0,0,0,0,0,0,0,0,0,0,0,0,0,0,0,0,0,0,0,0,0,0,0,0,0,0,0,0,0,0,0,0,0,0,0,0,0,0,0,0,0],"sum_hessian":[1.915E3,1.856E3,5.9E1,1.302E3,5.54E2,4E1,1.9E1,2.9E2,1.012E3,5.46E2,8E0,1.8E1,2.2E1,6E0,1.3E1,1.13E2,1.77E2,1.1E1,1.001E3,4.86E2,6E1,1E0,7E0,1E1,8E0,1E0,5E0,2E0,1.1E1,4.9E1,6.4E1,4E0,1.73E2,1E0,1E1,9.94E2,7E0,2.34E2,2.52E2,5E1,1E1,8E0,2E0,5E0,3E0,1E0,1E1,3E0,4.6E1,4.3E1,2.1E1,2E1,1.53E2,9.65E2,2.9E1,2.3E1,2.11E2,8.5E1,1.67E2,1.9E1,3.1E1,1E0,1E0,2E0,1E0,1E0,9E0,1.9E1,2.7E1,2.5E1,1.8E1,1E1,1.1E1,1.7E1,3E0,1.41E2,1.2E1,7.07E2,2.58E2,8E0,2.1E1,1.4E1,9E0,1.1E2,1.01E2,5.4E1,3.1E1,4E0,1.63E2,7E0,1.2E1,4E0,2.7E1,1.3E1,1.4E1,3E0,2.2E1,4E0,1.4E1,9E0,1E0,6E0,5E0,9E0,8E0,1.32E2,9E0,3E0,9E0,3.29E2,3.78E2,8.3E1,1.75E2,3E0,5E0,1.7E1,4E0,5E0,4E0,6.8E1,4.2E1,1.1E1,9E1,4.9E1,5E0,2.6E1,5E0,4E0,1.59E2,4E0,3E0,2.2E1,5E0],"tree_param":{"num_deleted":"0","num_feature":"18","num_nodes":"133","size_leaf_vector":"1"}},{"base_weights":[1.3699548E-2,3.3204306E-3,1.3013095E-1,1.2855828E-1,-5.612855E-3,3.2139596E-1,7.3406644E-2,2.309144E-1,-2.5322577E-2,-9.952499E-2,2.2784427E-3,-1.4238495E-2,3.7175083E-1,9.261366E-3,2.465946E-1,1.6627312E-1,1.5357874E-2,-1.1472476E-1,2.9223418E-1,1.5134894E-2,-2.652781E-1,4.4384584E-2,-2.6589578E-2,-1.1741089E-2,3.9772838E-1,1.4457238E-2,-3.242977E-2,3.1494337E-1,-2.2361962E-1,6.757529E-2,3.714345E-1,-1.8037821E-1,2.8312844E-1,-1.3057911E-2,3.801087E-1,1.330363E-1,-1.7809905E-1,2.1719454E-1,-3.0712962E-1,-2.1978664E-1,5.4412212E-2,1.5554688E-2,-6.7593604E-2,1.4912597E-2,1.22182295E-1,-9.434755E-2,1.6520227E-1,4.007386E-1,-2.5158508E-3,-1.344969E-2,1.1882484E-2,1.6381909E-1,-1.9970606E-1,9.846425E-2,1.4467933E-2,1.3817533E-2,-2.2693148E-1,-1.18755875E-2,1.412903E-2,1.4742082E-2,-1.1552357E-2,4.0473774E-1,4.5729782E-2,-1.3178998E-3,-3.5222653E-1,-1.2830595E-2,1.3549479E-2,-1.10758185E-1,-3.8106292E-1,2.8307605E-1,-3.69354E-1,7.0341535E-2,-7.259007E-2,-5.911652E-3,3.5140336E-1,5.2508272E-2,-1.0482829E-1,-1.412181E-2,1.4589639E-2,-1.6176437E-1,7.9972744E-2,2.9300654E-1,-1.5009699E-2,4.4373482E-1,-1.2909041E-2,-1.4602609E-2,1.4451373E-2,1.4285677E-2,3.8853526E-2,-1.47808E-2,1.3773798E-2,1.4535308E-2,-1.4010802E-2,5.9468783E-2,-3.177705E-1,-1.2290182E-2,1.5045326E-2,-1.4297549E-2,1.3395146E-1,-3.2481194E-1,2.4337703E-1,1.464041E-1,-1.4934838E-2,-1.4669245E-2,6.041988E-2,-4.3025842E-1,-8.98306E-2,-1.2786087E-2,1.4388782E-2,1.2357345E-2,-4.2232904E-1,3.0165456E-2,1.4215301E-1,6.9323026E-2,-2.3749377E-1,5.6918925E-3,-3.547346E-1,-1.2750856E-2,3.8537225E-1,9.512895E-2,-3.1043595E-1,-1.3951592E-1,2.9968455E-2,1.0901418E-1,-2.752942E-1,-2.4138996E-1,3.646453E-1,1.4522433E-2,5.201738E-2,1.5013454E-2,-9.2143705E-3,-4.574053E-3,1.4333713E-2,1.3756623E-2,-7.373378E-3,-1.0887701E-2,1.2491373E-2,8.547203E-4,1.44085465E-2,-1.4425311E-2,1.113212E-2,1.4567945E-2,-4.6091718E-3,1.3595779E-2,-1.2948656E-2,6.491787E-3,-1.3475221E-2,-1.5169702E-2,-3.2664947E-3,1.3969125E-2,-1.4078158E-2,-1.4684478E-2,-4.777746E-3,6.102011E-3,-1.7386668E-4,1.00025514E-4,7.615713E-3,4.3360656E-3,-1.4414003E-2,-9.733071E-3,1.4157487E-2,6.9543876E-4,-5.738626E-3,5.0571356E-3,-1.5624499E-2,2.1738165E-4,1.3962208E-2,5.4196687E-3,-2.0374837E-3,-1.4641647E-2,4.2969044E-3,-1.7650225E-3,-6.1207185E-3,3.1691599E-3,-9.838674E-3,1.0359655E-2,-4.936043E-3,-1.2159572E-2,-4.7026295E-4,4.759505E-3,-1.4564829E-2,1.4373543E-2,-1.2650447E-2,-1.4817801E-2,1.4024082E-2,-1.269303E-2,1.2172073E-2],"categories":[],"categories_nodes":[],"categories_segments":[],"categories_sizes":[],"default_left":[0,0,0,0,0,0,0,0,0,0,0,0,0,0,0,0,0,0,0,0,0,0,0,0,0,0,0,0,0,0,0,0,0,0,0,0,0,0,0,0,0,0,0,0,0,0,0,0,0,0,0,0,0,0,0,0,0,0,0,0,0,0,0,0,0,0,0,0,0,0,0,0,0,0,0,0,0,0,0,0,0,0,0,0,0,0,0,0,0,0,0,0,0,0,0,0,0,0,0,0,0,0,0,0,0,0,0,0,0,0,0,0,0,0,0,0,0,0,0,0,0,0,0,0,0,0,0,0,0,0,0,0,0,0,0,0,0,0,0,0,0,0,0,0,0,0,0,0,0,0,0,0,0,0,0,0,0,0,0,0,0,0,0,0,0,0,0,0,0,0,0,0,0,0,0,0,0,0,0,0,0,0,0,0,0,0,0],"id":9,"left_children":[1,3,5,7,9,11,13,15,17,19,21,-1,23,25,27,29,-1,31,33,35,37,39,41,-1,43,-1,45,47,49,51,53,55,57,-1,59,61,63,65,67,69,71,73,75,-1,77,79,81,83,85,-1,-1,87,89,91,-1,-1,93,-1,-1,-1,-1,95,97,99,101,-1,-1,103,105,107,109,111,113,115,117,119,121,-1,-1,123,125,127,-1,129,-1,-1,-1,-1,131,-1,-1,-1,-1,133,135,-1,-1,-1,137,139,141,143,-1,-1,145,147,149,-1,-1,-1,151,153,155,157,159,161,163,-1,165,167,169,171,173,175,177,179,181,-1,183,-1,185,-1,-1,-1,-1,-1,-1,-1,-1,-1,-1,-1,-1,-1,-1,-1,-1,-1,-1,-1,-1,-1,-1,-1,-1,-1,-1,-1,-1,-1,-1,-1,-1,-1,-1,-1,-1,-1,-1,-1,-1,-1,-1,-1,-1,-1,-1,-1,-1,-1,-1,-1,-1,-1,-1,-1,-1],"loss_changes":[2.2768588E0,1.9359171E0,1.6680231E0,1.8159192E0,1.1970863E0,1.4318428E0,1.3237844E0,1.1962676E0,1.3189288E0,2.380559E0,1.8116344E0,0E0,6.84113E-1,1.6887703E0,1.0500278E0,1.1328113E0,0E0,9.565432E-1,6.794877E-1,1.6956718E0,1.0481005E0,1.608331E0,1.5282245E0,0E0,7.859144E-1,0E0,9.8478836E-1,7.686629E-1,5.933688E-1,9.897998E-1,4.9574542E-1,9.401643E-1,6.63879E-1,0E0,7.505195E-1,1.0921621E0,8.681952E-1,6.44876E-1,6.764164E-1,1.6924891E0,1.1829659E0,3.1453574E0,2.005548E0,0E0,1.748412E0,7.220923E-1,1.6409924E0,8.252597E-1,1.4492388E0,0E0,0E0,1.065583E0,1.9290667E0,1.1390121E0,0E0,0E0,7.639847E-1,0E0,0E0,0E0,0E0,8.3117676E-1,1.6076273E0,1.1414962E0,9.8025537E-1,0E0,0E0,8.4060615E-1,4.8188162E-1,7.264594E-1,7.411063E-1,1.4970298E0,1.5295565E0,1.6608735E0,7.179339E-1,1.6491159E0,1.6010067E0,0E0,0E0,1.3654426E0,1.5929961E0,7.0542383E-1,0E0,4.5521545E-1,0E0,0E0,0E0,0E0,1.6522007E0,0E0,0E0,0E0,0E0,8.6913115E-1,6.484859E-1,0E0,0E0,0E0,1.0771273E0,6.648639E-1,7.693232E-1,5.8523E-1,0E0,0E0,7.206613E-1,6.1088705E-1,1.099811E0,0E0,0E0,0E0,2.3386598E-1,2.0239294E0,2.7646964E0,1.3940283E0,1.7413188E0,1.3105967E0,1.091492E0,0E0,6.786785E-1,1.2672575E0,8.6562514E-1,1.3480406E0,1.826449E0,8.325149E-1,9.9133396E-1,7.815622E-1,7.967651E-1,0E0,1.6200877E0,0E0,4.0017068E-1,0E0,0E0,0E0,0E0,0E0,0E0,0E0,0E0,0E0,0E0,0E0,0E0,0E0,0E0,0E0,0E0,0E0,0E0,0E0,0E0,0E0,0E0,0E0,0E0,0E0,0E0,0E0,0E0,0E0,0E0,0E0,0E0,0E0,0E0,0E0,0E0,0E0,0E0,0E0,0E0,0E0,0E0,0E0,0E0,0E0,0E0,0E0,0E0,0E0,0E0,0E0,0E0,0E0,0E0,0E0,0E0],"parents":[2147483647,0,0,1,1,2,2,3,3,4,4,5,5,6,6,7,7,8,8,9,9,10,10,12,12,13,13,14,14,15,15,17,17,18,18,19,19,20,20,21,21,22,22,24,24,26,26,27,27,28,28,29,29,30,30,31,31,32,32,34,34,35,35,36,36,37,37,38,38,39,39,40,40,41,41,42,42,44,44,45,45,46,46,47,47,48,48,51,51,52,52,53,53,56,56,61,61,62,62,63,63,64,64,67,67,68,68,69,69,70,70,71,71,72,72,73,73,74,74,75,75,76,76,79,79,80,80,81,81,83,83,88,88,93,93,94,94,98,98,99,99,100,100,101,101,104,104,105,105,106,106,110,110,111,111,112,112,113,113,114,114,115,115,116,116,118,118,119,119,120,120,121,121,122,122,123,123,124,124,125,125,126,126,128,128,130,130],"right_children":[2,4,6,8,10,12,14,16,18,20,22,-1,24,26,28,30,-1,32,34,36,38,40,42,-1,44,-1,46,48,50,52,54,56,58,-1,60,62,64,66,68,70,72,74,76,-1,78,80,82,84,86,-1,-1,88,90,92,-1,-1,94,-1,-1,-1,-1,96,98,100,102,-1,-1,104,106,108,110,112,114,116,118,120,122,-1,-1,124,126,128,-1,130,-1,-1,-1,-1,132,-1,-1,-1,-1,134,136,-1,-1,-1,138,140,142,144,-1,-1,146,148,150,-1,-1,-1,152,154,156,158,160,162,164,-1,166,168,170,172,174,176,178,180,182,-1,184,-1,186,-1,-1,-1,-1,-1,-1,-1,-1,-1,-1,-1,-1,-1,-1,-1,-1,-1,-1,-1,-1,-1,-1,-1,-1,-1,-1,-1,-1,-1,-1,-1,-1,-1,-1,-1,-1,-1,-1,-1,-1,-1,-1,-1,-1,-1,-1,-1,-1,-1,-1,-1,-1,-1,-1,-1,-1],"split_conditions":[2E2,-9.8661727E-1,8.3235294E-1,1.0231214E0,-6E1,-2E0,2E0,3.9E1,4.9E1,6.903766E-1,-4E0,-1.4238495E-2,-3E0,-3E0,1.478673E0,9E0,1.5357874E-2,1.3916667E0,-3E0,1.0079156E0,-3E0,6.309227E-1,5.3294413E-2,-1.1741089E-2,2.1E1,1.4457238E-2,1.2375479E0,3E0,-6.8E1,1E0,3E0,-1E0,-8.6E1,-1.3057911E-2,1.25E2,-1E0,1E0,-7.7E1,6.5E0,5.5E0,5.5E0,1.25E1,5.5E0,1.4912597E-2,2.7E1,2E0,3.4E1,5.4175615E-1,0E0,-1.344969E-2,1.1882484E-2,7.5E0,8.807018E-1,8.949153E-1,1.4467933E-2,1.3817533E-2,-5E1,-1.18755875E-2,1.412903E-2,1.4742082E-2,-1.1552357E-2,-2E0,-1.3E1,-1E0,-1.4E1,-1.2830595E-2,1.3549479E-2,-6.7E1,5E0,-3.5E1,1.5E0,8.5E0,8.5E0,1.39E2,-3E0,5E1,1.2879581E0,-1.412181E-2,1.4589639E-2,-1E0,0E0,1.3829787E0,-1.5009699E-2,5E0,-1.2909041E-2,-1.4602609E-2,1.4451373E-2,1.4285677E-2,1E0,-1.47808E-2,1.3773798E-2,1.4535308E-2,-1.4010802E-2,2.5E0,4E0,-1.2290182E-2,1.5045326E-2,-1.4297549E-2,1E0,0E0,4E0,-2.2E1,-1.4934838E-2,-1.4669245E-2,-6.3E1,1.1787072E0,1E0,-1.2786087E-2,1.4388782E-2,1.2357345E-2,2E0,-1.2E1,0E0,3E0,1.8E1,1E2,-7.02913E-1,-1.2750856E-2,-1.3E1,1.2475728E0,9.3949044E-1,-3E0,1.5419354E0,-5.7403017E-2,5E0,-8E0,7.066866E-1,1.4522433E-2,1.259947E-1,1.5013454E-2,-3.3E1,-4.574053E-3,1.4333713E-2,1.3756623E-2,-7.373378E-3,-1.0887701E-2,1.2491373E-2,8.547203E-4,1.44085465E-2,-1.4425311E-2,1.113212E-2,1.4567945E-2,-4.6091718E-3,1.3595779E-2,-1.2948656E-2,6.491787E-3,-1.3475221E-2,-1.5169702E-2,-3.2664947E-3,1.3969125E-2,-1.4078158E-2,-1.4684478E-2,-4.777746E-3,6.102011E-3,-1.7386668E-4,1.00025514E-4,7.615713E-3,4.3360656E-3,-1.4414003E-2,-9.733071E-3,1.4157487E-2,6.9543876E-4,-5.738626E-3,5.0571356E-3,-1.5624499E-2,2.1738165E-4,1.3962208E-2,5.4196687E-3,-2.0374837E-3,-1.4641647E-2,4.2969044E-3,-1.7650225E-3,-6.1207185E-3,3.1691599E-3,-9.838674E-3,1.0359655E-2,-4.936043E-3,-1.2159572E-2,-4.7026295E-4,4.759505E-3,-1.4564829E-2,1.4373543E-2,-1.2650447E-2,-1.4817801E-2,1.4024082E-2,-1.269303E-2,1.2172073E-2],"split_indices":[14,16,11,11,1,4,13,1,0,10,1,0,3,13,11,5,0,11,4,11,3,11,16,0,1,0,11,5,0,3,12,4,0,0,0,3,3,0,15,15,12,15,15,0,1,4,1,16,4,0,0,15,11,11,0,0,1,0,0,0,0,4,5,5,5,0,0,1,12,0,12,15,15,0,1,14,10,0,0,4,5,11,0,13,0,0,0,0,8,0,0,0,0,12,8,0,0,0,8,3,13,0,0,0,1,11,8,0,0,0,3,5,13,4,5,14,16,0,5,10,11,5,10,16,12,5,16,0,16,0,0,0,0,0,0,0,0,0,0,0,0,0,0,0,0,0,0,0,0,0,0,0,0,0,0,0,0,0,0,0,0,0,0,0,0,0,0,0,0,0,0,0,0,0,0,0,0,0,0,0,0,0,0,0,0,0,0],"split_type":[0,0,0,0,0,0,0,0,0,0,0,0,0,0,0,0,0,0,0,0,0,0,0,0,0,0,0,0,0,0,0,0,0,0,0,0,0,0,0,0,0,0,0,0,0,0,0,0,0,0,0,0,0,0,0,0,0,0,0,0,0,0,0,0,0,0,0,0,0,0,0,0,0,0,0,0,0,0,0,0,0,0,0,0,0,0,0,0,0,0,0,0,0,0,0,0,0,0,0,0,0,0,0,0,0,0,0,0,0,0,0,0,0,0,0,0,0,0,0,0,0,0,0,0,0,0,0,0,0,0,0,0,0,0,0,0,0,0,0,0,0,0,0,0,0,0,0,0,0,0,0,0,0,0,0,0,0,0,0,0,0,0,0,0,0,0,0,0,0,0,0,0,0,0,0,0,0,0,0,0,0,0,0,0,0,0,0],"sum_hessian":[1.884E3,1.73E3,1.54E2,1.15E2,1.615E3,3.5E1,1.19E2,6.9E1,4.6E1,1.25E2,1.49E3,2E0,3.3E1,8.7E1,3.2E1,5.6E1,1.3E1,3.6E1,1E1,7.4E1,5.1E1,6.06E2,8.84E2,1E0,3.2E1,7E0,8E1,2.8E1,4E0,3.8E1,1.8E1,3.1E1,5E0,1E0,9E0,4.6E1,2.8E1,4E0,4.7E1,2.2E1,5.84E2,4.36E2,4.48E2,2.4E1,8E0,6.1E1,1.9E1,2.2E1,6E0,3E0,1E0,2.8E1,1E1,5E0,1.3E1,2E0,2.9E1,1E0,4E0,8E0,1E0,1.1E1,3.5E1,1.4E1,1.4E1,1E0,3E0,1.3E1,3.4E1,5E0,1.7E1,5.19E2,6.5E1,4.1E2,2.6E1,1.06E2,3.42E2,3E0,5E0,4.4E1,1.7E1,1.6E1,3E0,2.1E1,1E0,3E0,3E0,8E0,2E1,7E0,3E0,3E0,2E0,7E0,2.2E1,1E0,1E1,5E0,3E1,6E0,8E0,3E0,1.1E1,4E0,9E0,2.9E1,5E0,1E0,4E0,1E0,1.6E1,3.33E2,1.86E2,3.5E1,3E1,3.97E2,1.3E1,1E0,2.5E1,9.5E1,1.1E1,2.72E2,7E1,1.3E1,3.1E1,8E0,9E0,9E0,7E0,1.9E1,2E0,1.4E1,6E0,3E0,4E0,2.1E1,1E0,2.3E1,7E0,5E0,1E0,5E0,3E0,2E0,1E0,7E0,2E0,2.4E1,5E0,2E0,3E0,1.3E1,3E0,5.8E1,2.75E2,8.1E1,1.05E2,3.1E1,4E0,2.7E1,3E0,3.65E2,3.2E1,3E0,1E1,4E0,2.1E1,6.3E1,3.2E1,8E0,3E0,1.16E2,1.56E2,5.8E1,1.2E1,7E0,6E0,2.1E1,1E1,3E0,5E0,8E0,1E0,3E0,4E0,1E0,1E0],"tree_param":{"num_deleted":"0","num_feature":"18","num_nodes":"187","size_leaf_vector":"1"}},{"base_weights":[6.549654E-3,4.9924128E-2,-1.9815607E-2,2.7532626E-3,1.0349072E-1,-1.082993E-1,4.636302E-3,-1.8462853E-1,2.4605576E-2,-1.2542656E-1,1.21519655E-1,-1.4975367E-1,2.3410854E-1,2.0032844E-2,-1.0046122E-1,1.3586526E-1,-1.4901845E-2,4.8687443E-2,-1.5291652E-1,-3.6506543E-1,2.1399643E-2,-2.2102024E-1,1.3444154E-1,-1.5883759E-1,1.4857803E-2,-1.6691688E-1,3.4921816E-1,-4.5084786E-3,1.394719E-1,-1.4682288E-2,-6.764101E-2,3.9184833E-1,-1.5098566E-1,3.465343E-2,1.4835283E-2,-2.9785296E-1,8.940582E-2,-1.4238071E-2,1.1633697E-2,-1.4259412E-2,1.4928873E-1,-3.663466E-1,1.6504942E-1,1.4879174E-2,1.2300888E-1,2.6909372E-1,-1.6899669E-1,1.331563E-2,-1.45204635E-2,3.9170343E-1,-1.2863506E-2,2.5750734E-2,-6.857514E-2,8.789273E-2,1.4366133E-2,3.6540475E-1,-1.4445068E-1,-1.2660855E-2,1.4946983E-2,-3.351756E-1,1.4191268E-2,5.372412E-3,1.9996548E-1,-1.4935549E-2,-1.6576943E-1,-1.456705E-2,2.3664886E-1,-1.3032232E-2,1.4017259E-2,6.517662E-3,-1.488141E-2,-1.1766783E-2,1.3776668E-2,-2.901569E-1,1.381891E-1,1.3843686E-2,-1.2730379E-2,-2.7029586E-1,-1.1588354E-1,-1.2435042E-2,4.3772903E-1,-7.105658E-2,6.129997E-2,3.5503158E-1,-8.5620396E-2,3.6701936E-2,3.6575273E-1,-1.31938085E-2,4.237797E-1,-2.0216978E-1,1.2520464E-1,1.3291317E-2,-1.4490461E-2,2.943555E-1,-1.3808216E-2,7.1467822E-3,3.6603895E-1,-6.5858057E-4,-1.4756026E-2,-2.4748345E-1,1.4642828E-2,1.3637508E-2,-1.7600803E-1,1.2492131E-2,-1.212176E-2,1.4654255E-1,-1.455965E-2,1.5900563E-1,-1.51247615E-2,-2.9150635E-1,1.3706124E-2,1.5483868E-1,-1.4108495E-1,-1.1983261E-2,1.4916271E-2,-2.317331E-2,-3.779436E-1,1.882136E-2,1.799996E-1,-1.1886833E-2,1.43577475E-2,9.128983E-2,-1.1637353E-1,1.02668025E-1,-1.929539E-1,-1.2882697E-2,4.1664866E-1,1.4877128E-2,8.200221E-3,-2.3765166E-1,2.8406978E-1,-2.4009866E-1,2.4903132E-1,1.507754E-2,-3.2701197E-3,-8.755466E-3,3.8319017E-4,-1.4199165E-2,3.960882E-3,1.4985344E-2,3.8778586E-3,8.753068E-3,-8.794021E-3,-1.4810198E-2,1.2952839E-2,4.1344687E-3,-1.45479E-2,1.3456567E-2,-1.2683194E-2,3.2017718E-3,7.0329583E-3,-6.5577147E-3,1.0132804E-2,-2.7574567E-4,-1.030077E-2,1.4231023E-2,-2.2649001E-3,-9.393055E-4,-6.217589E-3,-4.751981E-3,3.830709E-3,1.0964606E-2,-1.3189111E-2,2.2999279E-3,-2.0283589E-3,7.876276E-3,-2.8563668E-3,8.951053E-3,-3.4064103E-3,-3.939955E-3,8.903705E-3,-4.9901595E-3,5.6284866E-3,-1.3183916E-2,4.6813153E-3,-1.0656032E-4,1.4430994E-2,-1.2290617E-2,1.2754944E-2,1.071994E-3,-8.819741E-3,1.4210973E-2,-1.2036737E-2,1.2103173E-2,-1.4193727E-2,9.62313E-3,-1.2305705E-2],"categories":[],"categories_nodes":[],"categories_segments":[],"categories_sizes":[],"default_left":[0,0,0,0,0,0,0,0,0,0,0,0,0,0,0,0,0,0,0,0,0,0,0,0,0,0,0,0,0,0,0,0,0,0,0,0,0,0,0,0,0,0,0,0,0,0,0,0,0,0,0,0,0,0,0,0,0,0,0,0,0,0,0,0,0,0,0,0,0,0,0,0,0,0,0,0,0,0,0,0,0,0,0,0,0,0,0,0,0,0,0,0,0,0,0,0,0,0,0,0,0,0,0,0,0,0,0,0,0,0,0,0,0,0,0,0,0,0,0,0,0,0,0,0,0,0,0,0,0,0,0,0,0,0,0,0,0,0,0,0,0,0,0,0,0,0,0,0,0,0,0,0,0,0,0,0,0,0,0,0,0,0,0,0,0,0,0,0,0,0,0,0,0,0,0,0,0,0,0,0,0,0,0,0,0,0,0],"id":10,"left_children":[1,3,5,7,9,11,13,15,17,19,21,23,25,27,29,31,-1,33,35,37,39,41,43,45,-1,47,49,51,53,-1,55,57,59,61,-1,63,65,-1,-1,-1,67,69,71,-1,73,75,77,-1,-1,79,-1,81,83,85,-1,87,89,-1,-1,91,-1,93,95,-1,97,-1,99,101,-1,103,-1,-1,-1,105,107,-1,-1,109,111,-1,113,115,117,119,121,123,125,-1,127,129,131,-1,-1,133,135,137,139,141,-1,143,-1,-1,145,-1,-1,147,-1,149,151,153,-1,155,157,-1,-1,159,161,163,165,-1,-1,167,169,171,173,-1,175,-1,177,179,181,183,185,-1,-1,-1,-1,-1,-1,-1,-1,-1,-1,-1,-1,-1,-1,-1,-1,-1,-1,-1,-1,-1,-1,-1,-1,-1,-1,-1,-1,-1,-1,-1,-1,-1,-1,-1,-1,-1,-1,-1,-1,-1,-1,-1,-1,-1,-1,-1,-1,-1,-1,-1,-1,-1,-1],"loss_changes":[2.1332316E0,1.7818264E0,2.5103571E0,1.5372981E0,1.3660269E0,3.5731077E0,1.4716309E0,3.8182845E0,1.4388598E0,8.5357636E-1,1.3615947E0,1.3108182E0,1.2683842E0,2.3252187E0,1.4412771E0,1.4230969E0,0E0,1.8108358E0,1.4178929E0,7.279409E-1,9.633384E-1,6.417341E-1,1.1758537E0,9.712286E-1,0E0,1.1956233E0,7.2843504E-1,1.276393E0,2.2951412E0,0E0,3.577085E0,8.4062934E-1,1.0761707E0,1.3899647E0,0E0,6.1749434E-1,1.2908492E0,0E0,0E0,0E0,6.14076E-1,3.6919212E-1,5.404792E-1,0E0,1.8034906E0,6.9554377E-1,1.1565952E0,0E0,0E0,7.8009605E-1,0E0,1.5399549E0,1.5313661E0,1.6642592E0,0E0,7.9254246E-1,1.424964E0,0E0,0E0,8.1339115E-1,0E0,1.3545539E0,1.3830386E0,0E0,7.954613E-1,0E0,1.4569378E0,6.306716E-1,0E0,3.9213237E-1,0E0,0E0,0E0,8.4413564E-1,8.820567E-1,0E0,0E0,1.1584597E0,9.7483265E-1,0E0,8.3867717E-1,1.7645171E0,1.6490955E0,7.378082E-1,1.1078153E0,1.5071295E0,7.6640034E-1,0E0,3.9579535E-1,1.3117666E0,7.458389E-1,0E0,0E0,1.2243235E0,1.6462338E0,1.1789073E0,6.755183E-1,8.579376E-1,0E0,7.12464E-1,0E0,0E0,5.930135E-1,0E0,0E0,5.6738824E-1,0E0,9.324279E-1,2.30889E0,9.248376E-1,0E0,8.754381E-1,8.9331317E-1,0E0,0E0,2.0498753E0,6.700928E-1,1.1594833E0,1.8339739E0,0E0,0E0,1.2404691E0,8.8888574E-1,1.6774504E0,1.8448863E0,0E0,4.00378E-1,0E0,4.0600336E-1,9.7472024E-1,6.7654335E-1,6.386703E-1,5.491436E-1,0E0,0E0,0E0,0E0,0E0,0E0,0E0,0E0,0E0,0E0,0E0,0E0,0E0,0E0,0E0,0E0,0E0,0E0,0E0,0E0,0E0,0E0,0E0,0E0,0E0,0E0,0E0,0E0,0E0,0E0,0E0,0E0,0E0,0E0,0E0,0E0,0E0,0E0,0E0,0E0,0E0,0E0,0E0,0E0,0E0,0E0,0E0,0E0,0E0,0E0,0E0,0E0,0E0,0E0],"parents":[2147483647,0,0,1,1,2,2,3,3,4,4,5,5,6,6,7,7,8,8,9,9,10,10,11,11,12,12,13,13,14,14,15,15,17,17,18,18,19,19,20,20,21,21,22,22,23,23,25,25,26,26,27,27,28,28,30,30,31,31,32,32,33,33,35,35,36,36,40,40,41,41,42,42,44,44,45,45,46,46,49,49,51,51,52,52,53,53,55,55,56,56,59,59,61,61,62,62,64,64,66,66,67,67,69,69,73,73,74,74,77,77,78,78,80,80,81,81,82,82,83,83,84,84,85,85,86,86,88,88,89,89,90,90,93,93,94,94,95,95,96,96,97,97,99,99,102,102,105,105,107,107,108,108,109,109,111,111,112,112,115,115,116,116,117,117,118,118,121,121,122,122,123,123,124,124,126,126,128,128,129,129,130,130,131,131,132,132],"right_children":[2,4,6,8,10,12,14,16,18,20,22,24,26,28,30,32,-1,34,36,38,40,42,44,46,-1,48,50,52,54,-1,56,58,60,62,-1,64,66,-1,-1,-1,68,70,72,-1,74,76,78,-1,-1,80,-1,82,84,86,-1,88,90,-1,-1,92,-1,94,96,-1,98,-1,100,102,-1,104,-1,-1,-1,106,108,-1,-1,110,112,-1,114,116,118,120,122,124,126,-1,128,130,132,-1,-1,134,136,138,140,142,-1,144,-1,-1,146,-1,-1,148,-1,150,152,154,-1,156,158,-1,-1,160,162,164,166,-1,-1,168,170,172,174,-1,176,-1,178,180,182,184,186,-1,-1,-1,-1,-1,-1,-1,-1,-1,-1,-1,-1,-1,-1,-1,-1,-1,-1,-1,-1,-1,-1,-1,-1,-1,-1,-1,-1,-1,-1,-1,-1,-1,-1,-1,-1,-1,-1,-1,-1,-1,-1,-1,-1,-1,-1,-1,-1,-1,-1,-1,-1,-1,-1],"split_conditions":[-2.3727521E-1,0E0,-6.6666664E1,-2E0,7.075472E-1,3E0,8.680952E-1,0E0,-1E1,-1.3E1,1.5E0,1.6013072E0,-3.1E1,5.984735E-1,7.1967655E-1,0E0,-1.4901845E-2,4E0,1E0,2E0,-2E0,2E0,-5.1E1,-3E0,1.4857803E-2,-2E0,1.17E2,4E1,2E2,-1.4682288E-2,8.1710917E-1,-1.46E2,-2.5E1,4.4E1,1.4835283E-2,-6.5896744E-1,-5.2E1,